digraph Tree {
rankdir=TB;
node [shape=box, style="filled, rounded", color="black", fontname="helvetica"] ;
edge [fontname="helvetica"] ;
0 [label="BWH <= 2.035\ngini = 0.633\nsamples = 2819\nvalue = [800, 664, 1355]\nclass = H", fillcolor="#dcc9f8"] ;
1 [label="B365D <= 4.875\ngini = 0.521\nsamples = 1356\nvalue = [212, 271, 873]\nclass = H", fillcolor="#b991f1"] ;
0 -> 1 [labeldistance=2.5, labelangle=45, headlabel="True"] ;
2 [label="gini = 0.574\nsamples = 1038\nvalue = [205, 246, 587]\nclass = H", fillcolor="#c9aaf4"] ;
1 -> 2 ;
3 [label="LBH <= 1.125\ngini = 0.203\nsamples = 318\nvalue = [7, 25, 286]\nclass = H", fillcolor="#8f4fe8"] ;
1 -> 3 ;
4 [label="LBD <= 11.5\ngini = 0.04\nsamples = 99\nvalue = [1, 1, 97]\nclass = H", fillcolor="#843de6"] ;
3 -> 4 ;
5 [label="gini = 0.0\nsamples = 69\nvalue = [0, 0, 69]\nclass = H", fillcolor="#8139e5"] ;
4 -> 5 ;
6 [label="IWD <= 7.75\ngini = 0.131\nsamples = 30\nvalue = [1, 1, 28]\nclass = H", fillcolor="#8a47e7"] ;
4 -> 6 ;
7 [label="gini = 0.0\nsamples = 1\nvalue = [1, 0, 0]\nclass = A", fillcolor="#e58139"] ;
6 -> 7 ;
8 [label="VCA <= 30.0\ngini = 0.067\nsamples = 29\nvalue = [0, 1, 28]\nclass = H", fillcolor="#8640e6"] ;
6 -> 8 ;
9 [label="VCH <= 1.075\ngini = 0.375\nsamples = 4\nvalue = [0, 1, 3]\nclass = H", fillcolor="#ab7bee"] ;
8 -> 9 ;
10 [label="gini = 0.0\nsamples = 1\nvalue = [0, 1, 0]\nclass = D", fillcolor="#39e581"] ;
9 -> 10 ;
11 [label="gini = 0.0\nsamples = 3\nvalue = [0, 0, 3]\nclass = H", fillcolor="#8139e5"] ;
9 -> 11 ;
12 [label="gini = 0.0\nsamples = 25\nvalue = [0, 0, 25]\nclass = H", fillcolor="#8139e5"] ;
8 -> 12 ;
13 [label="IWD <= 8.5\ngini = 0.242\nsamples = 219\nvalue = [6, 24, 189]\nclass = H", fillcolor="#9457e9"] ;
3 -> 13 ;
14 [label="BWA <= 18.25\ngini = 0.23\nsamples = 217\nvalue = [6, 22, 189]\nclass = H", fillcolor="#9355e9"] ;
13 -> 14 ;
15 [label="BWH <= 1.24\ngini = 0.212\nsamples = 212\nvalue = [5, 20, 187]\nclass = H", fillcolor="#9153e8"] ;
14 -> 15 ;
16 [label="IWH <= 1.16\ngini = 0.142\nsamples = 106\nvalue = [3, 5, 98]\nclass = H", fillcolor="#8b49e7"] ;
15 -> 16 ;
17 [label="BWH <= 1.155\ngini = 0.327\nsamples = 21\nvalue = [2, 2, 17]\nclass = H", fillcolor="#9c63ea"] ;
16 -> 17 ;
18 [label="VCH <= 1.165\ngini = 0.219\nsamples = 15\nvalue = [2, 0, 13]\nclass = H", fillcolor="#9457e9"] ;
17 -> 18 ;
19 [label="VCA <= 22.0\ngini = 0.133\nsamples = 13\nvalue = [1, 0, 12]\nclass = H", fillcolor="#8c49e7"] ;
18 -> 19 ;
20 [label="gini = 0.0\nsamples = 10\nvalue = [0, 0, 10]\nclass = H", fillcolor="#8139e5"] ;
19 -> 20 ;
21 [label="VCA <= 24.5\ngini = 0.5\nsamples = 3\nvalue = [1, 0, 2]\nclass = H", fillcolor="#c09cf2"] ;
19 -> 21 ;
22 [label="gini = 0.0\nsamples = 1\nvalue = [1, 0, 0]\nclass = A", fillcolor="#e58139"] ;
21 -> 22 ;
23 [label="gini = 0.0\nsamples = 2\nvalue = [0, 0, 2]\nclass = H", fillcolor="#8139e5"] ;
21 -> 23 ;
24 [label="gini = 0.0\nsamples = 2\nvalue = [1, 0, 1]\nclass = A", fillcolor="#ffffff"] ;
18 -> 24 ;
25 [label="VCD <= 8.25\ngini = 0.48\nsamples = 6\nvalue = [0, 2, 4]\nclass = H", fillcolor="#c09cf2"] ;
17 -> 25 ;
26 [label="gini = 0.0\nsamples = 3\nvalue = [0, 0, 3]\nclass = H", fillcolor="#8139e5"] ;
25 -> 26 ;
27 [label="VCH <= 1.175\ngini = 0.444\nsamples = 3\nvalue = [0, 2, 1]\nclass = D", fillcolor="#9cf2c0"] ;
25 -> 27 ;
28 [label="VCH <= 1.16\ngini = 0.444\nsamples = 2\nvalue = [0, 1, 1]\nclass = D", fillcolor="#ffffff"] ;
27 -> 28 ;
29 [label="gini = 0.0\nsamples = 1\nvalue = [0, 1, 0]\nclass = D", fillcolor="#39e581"] ;
28 -> 29 ;
30 [label="gini = 0.0\nsamples = 1\nvalue = [0, 0, 1]\nclass = H", fillcolor="#8139e5"] ;
28 -> 30 ;
31 [label="gini = nan\nsamples = 1\nvalue = [0, 1, 0]\nclass = D", fillcolor="#39e581"] ;
27 -> 31 ;
32 [label="WHH <= 1.27\ngini = 0.091\nsamples = 85\nvalue = [1, 3, 81]\nclass = H", fillcolor="#8743e6"] ;
16 -> 32 ;
33 [label="VCD <= 6.95\ngini = 0.07\nsamples = 82\nvalue = [0, 3, 79]\nclass = H", fillcolor="#8641e6"] ;
32 -> 33 ;
34 [label="gini = 0.0\nsamples = 37\nvalue = [0, 0, 37]\nclass = H", fillcolor="#8139e5"] ;
33 -> 34 ;
35 [label="BWD <= 6.875\ngini = 0.124\nsamples = 45\nvalue = [0, 3, 42]\nclass = H", fillcolor="#8a47e7"] ;
33 -> 35 ;
36 [label="WHH <= 1.21\ngini = 0.219\nsamples = 23\nvalue = [0, 3, 20]\nclass = H", fillcolor="#9457e9"] ;
35 -> 36 ;
37 [label="IWA <= 10.0\ngini = 0.32\nsamples = 14\nvalue = [0, 3, 11]\nclass = H", fillcolor="#a36fec"] ;
36 -> 37 ;
38 [label="gini = 0.0\nsamples = 1\nvalue = [0, 1, 0]\nclass = D", fillcolor="#39e581"] ;
37 -> 38 ;
39 [label="B365A <= 16.0\ngini = 0.26\nsamples = 13\nvalue = [0, 2, 11]\nclass = H", fillcolor="#985dea"] ;
37 -> 39 ;
40 [label="LBD <= 6.5\ngini = 0.375\nsamples = 7\nvalue = [0, 2, 5]\nclass = H", fillcolor="#b388ef"] ;
39 -> 40 ;
41 [label="BWD <= 6.375\ngini = 0.32\nsamples = 4\nvalue = [0, 1, 3]\nclass = H", fillcolor="#ab7bee"] ;
40 -> 41 ;
42 [label="gini = 0.0\nsamples = 2\nvalue = [0, 0, 2]\nclass = H", fillcolor="#8139e5"] ;
41 -> 42 ;
43 [label="VCD <= 7.25\ngini = 0.5\nsamples = 2\nvalue = [0, 1, 1]\nclass = D", fillcolor="#ffffff"] ;
41 -> 43 ;
44 [label="gini = 0.0\nsamples = 1\nvalue = [0, 1, 0]\nclass = D", fillcolor="#39e581"] ;
43 -> 44 ;
45 [label="gini = 0.0\nsamples = 1\nvalue = [0, 0, 1]\nclass = H", fillcolor="#8139e5"] ;
43 -> 45 ;
46 [label="IWH <= 1.19\ngini = 0.5\nsamples = 3\nvalue = [0, 1, 2]\nclass = H", fillcolor="#c09cf2"] ;
40 -> 46 ;
47 [label="gini = 0.0\nsamples = 1\nvalue = [0, 1, 0]\nclass = D", fillcolor="#39e581"] ;
46 -> 47 ;
48 [label="gini = 0.0\nsamples = 2\nvalue = [0, 0, 2]\nclass = H", fillcolor="#8139e5"] ;
46 -> 48 ;
49 [label="gini = 0.0\nsamples = 6\nvalue = [0, 0, 6]\nclass = H", fillcolor="#8139e5"] ;
39 -> 49 ;
50 [label="gini = 0.0\nsamples = 9\nvalue = [0, 0, 9]\nclass = H", fillcolor="#8139e5"] ;
36 -> 50 ;
51 [label="gini = 0.0\nsamples = 22\nvalue = [0, 0, 22]\nclass = H", fillcolor="#8139e5"] ;
35 -> 51 ;
52 [label="BWA <= 10.25\ngini = 0.444\nsamples = 3\nvalue = [1, 0, 2]\nclass = H", fillcolor="#c09cf2"] ;
32 -> 52 ;
53 [label="gini = 0.0\nsamples = 1\nvalue = [0, 0, 1]\nclass = H", fillcolor="#8139e5"] ;
52 -> 53 ;
54 [label="VCD <= 5.25\ngini = 0.5\nsamples = 2\nvalue = [1, 0, 1]\nclass = A", fillcolor="#ffffff"] ;
52 -> 54 ;
55 [label="gini = 0.0\nsamples = 1\nvalue = [0, 0, 1]\nclass = H", fillcolor="#8139e5"] ;
54 -> 55 ;
56 [label="gini = 0.0\nsamples = 1\nvalue = [1, 0, 0]\nclass = A", fillcolor="#e58139"] ;
54 -> 56 ;
57 [label="BWD <= 5.925\ngini = 0.275\nsamples = 106\nvalue = [2, 15, 89]\nclass = H", fillcolor="#995eea"] ;
15 -> 57 ;
58 [label="IWH <= 1.21\ngini = 0.254\nsamples = 93\nvalue = [2, 10, 81]\nclass = H", fillcolor="#9356e9"] ;
57 -> 58 ;
59 [label="gini = 0.5\nsamples = 2\nvalue = [1, 0, 1]\nclass = A", fillcolor="#ffffff"] ;
58 -> 59 ;
60 [label="BWD <= 4.45\ngini = 0.215\nsamples = 91\nvalue = [1, 10, 80]\nclass = H", fillcolor="#9254e9"] ;
58 -> 60 ;
61 [label="IWD <= 4.5\ngini = 0.444\nsamples = 6\nvalue = [0, 2, 4]\nclass = H", fillcolor="#c09cf2"] ;
60 -> 61 ;
62 [label="gini = 0.0\nsamples = 2\nvalue = [0, 1, 1]\nclass = D", fillcolor="#ffffff"] ;
61 -> 62 ;
63 [label="gini = 0.0\nsamples = 4\nvalue = [0, 1, 3]\nclass = H", fillcolor="#ab7bee"] ;
61 -> 63 ;
64 [label="VCD <= 4.9\ngini = 0.192\nsamples = 85\nvalue = [1, 8, 76]\nclass = H", fillcolor="#9050e8"] ;
60 -> 64 ;
65 [label="WHD <= 4.65\ngini = 0.397\nsamples = 11\nvalue = [0, 3, 8]\nclass = H", fillcolor="#b083ef"] ;
64 -> 65 ;
66 [label="BWD <= 4.625\ngini = 0.5\nsamples = 6\nvalue = [0, 3, 3]\nclass = D", fillcolor="#ffffff"] ;
65 -> 66 ;
67 [label="VCA <= 8.25\ngini = 0.444\nsamples = 3\nvalue = [0, 1, 2]\nclass = H", fillcolor="#c09cf2"] ;
66 -> 67 ;
68 [label="gini = 0.0\nsamples = 1\nvalue = [0, 1, 0]\nclass = D", fillcolor="#39e581"] ;
67 -> 68 ;
69 [label="gini = 0.0\nsamples = 2\nvalue = [0, 0, 2]\nclass = H", fillcolor="#8139e5"] ;
67 -> 69 ;
70 [label="VCD <= 4.65\ngini = 0.444\nsamples = 3\nvalue = [0, 2, 1]\nclass = D", fillcolor="#9cf2c0"] ;
66 -> 70 ;
71 [label="gini = -4.0\nsamples = 1\nvalue = [0, 1, 0]\nclass = D", fillcolor="#39e581"] ;
70 -> 71 ;
72 [label="gini = 0.0\nsamples = 2\nvalue = [0, 1, 1]\nclass = D", fillcolor="#ffffff"] ;
70 -> 72 ;
73 [label="gini = 0.0\nsamples = 5\nvalue = [0, 0, 5]\nclass = H", fillcolor="#8139e5"] ;
65 -> 73 ;
74 [label="BWA <= 10.75\ngini = 0.151\nsamples = 74\nvalue = [1, 5, 68]\nclass = H", fillcolor="#8c4ae7"] ;
64 -> 74 ;
75 [label="WHD <= 5.25\ngini = 0.092\nsamples = 62\nvalue = [1, 2, 59]\nclass = H", fillcolor="#8743e6"] ;
74 -> 75 ;
76 [label="IWH <= 1.385\ngini = 0.038\nsamples = 52\nvalue = [0, 1, 51]\nclass = H", fillcolor="#833de6"] ;
75 -> 76 ;
77 [label="gini = 0.0\nsamples = 42\nvalue = [0, 0, 42]\nclass = H", fillcolor="#8139e5"] ;
76 -> 77 ;
78 [label="LBH <= 1.34\ngini = 0.198\nsamples = 10\nvalue = [0, 1, 9]\nclass = H", fillcolor="#8f4fe8"] ;
76 -> 78 ;
79 [label="gini = 0.0\nsamples = 1\nvalue = [0, 1, 0]\nclass = D", fillcolor="#39e581"] ;
78 -> 79 ;
80 [label="gini = 0.0\nsamples = 9\nvalue = [0, 0, 9]\nclass = H", fillcolor="#8139e5"] ;
78 -> 80 ;
81 [label="IWH <= 1.275\ngini = 0.34\nsamples = 10\nvalue = [1, 1, 8]\nclass = H", fillcolor="#9d65eb"] ;
75 -> 81 ;
82 [label="LBH <= 1.27\ngini = 0.5\nsamples = 2\nvalue = [0, 1, 1]\nclass = D", fillcolor="#ffffff"] ;
81 -> 82 ;
83 [label="gini = 0.0\nsamples = 1\nvalue = [0, 1, 0]\nclass = D", fillcolor="#39e581"] ;
82 -> 83 ;
84 [label="gini = 0.0\nsamples = 1\nvalue = [0, 0, 1]\nclass = H", fillcolor="#8139e5"] ;
82 -> 84 ;
85 [label="LBD <= 5.125\ngini = 0.219\nsamples = 8\nvalue = [1, 0, 7]\nclass = H", fillcolor="#9355e9"] ;
81 -> 85 ;
86 [label="IWA <= 8.25\ngini = 0.5\nsamples = 2\nvalue = [1, 0, 1]\nclass = A", fillcolor="#ffffff"] ;
85 -> 86 ;
87 [label="gini = 0.0\nsamples = 1\nvalue = [0, 0, 1]\nclass = H", fillcolor="#8139e5"] ;
86 -> 87 ;
88 [label="gini = 0.0\nsamples = 1\nvalue = [1, 0, 0]\nclass = A", fillcolor="#e58139"] ;
86 -> 88 ;
89 [label="gini = 0.0\nsamples = 6\nvalue = [0, 0, 6]\nclass = H", fillcolor="#8139e5"] ;
85 -> 89 ;
90 [label="VCD <= 5.625\ngini = 0.397\nsamples = 12\nvalue = [0, 3, 9]\nclass = H", fillcolor="#ab7bee"] ;
74 -> 90 ;
91 [label="gini = 0.0\nsamples = 2\nvalue = [0, 2, 0]\nclass = D", fillcolor="#39e581"] ;
90 -> 91 ;
92 [label="BWD <= 5.125\ngini = 0.18\nsamples = 10\nvalue = [0, 1, 9]\nclass = H", fillcolor="#8f4fe8"] ;
90 -> 92 ;
93 [label="gini = 0.0\nsamples = 1\nvalue = [0, 1, 0]\nclass = D", fillcolor="#39e581"] ;
92 -> 93 ;
94 [label="gini = 0.0\nsamples = 9\nvalue = [0, 0, 9]\nclass = H", fillcolor="#8139e5"] ;
92 -> 94 ;
95 [label="BWA <= 9.625\ngini = 0.42\nsamples = 13\nvalue = [0, 5, 8]\nclass = H", fillcolor="#d0b5f5"] ;
57 -> 95 ;
96 [label="gini = 0.0\nsamples = 5\nvalue = [0, 0, 5]\nclass = H", fillcolor="#8139e5"] ;
95 -> 96 ;
97 [label="WHD <= 6.0\ngini = 0.469\nsamples = 8\nvalue = [0, 5, 3]\nclass = D", fillcolor="#b0f5cd"] ;
95 -> 97 ;
98 [label="VCA <= 15.0\ngini = 0.278\nsamples = 5\nvalue = [0, 5, 0]\nclass = D", fillcolor="#39e581"] ;
97 -> 98 ;
99 [label="gini = 0.0\nsamples = 4\nvalue = [0, 4, 0]\nclass = D", fillcolor="#39e581"] ;
98 -> 99 ;
100 [label="gini = nan\nsamples = 1\nvalue = [0, 1, 0]\nclass = D", fillcolor="#39e581"] ;
98 -> 100 ;
101 [label="gini = 0.0\nsamples = 3\nvalue = [0, 0, 3]\nclass = H", fillcolor="#8139e5"] ;
97 -> 101 ;
102 [label="WHH <= 1.145\ngini = 0.625\nsamples = 5\nvalue = [1, 2, 2]\nclass = D", fillcolor="#ffffff"] ;
14 -> 102 ;
103 [label="LBD <= 8.75\ngini = 0.625\nsamples = 3\nvalue = [1, 1, 1]\nclass = A", fillcolor="#ffffff"] ;
102 -> 103 ;
104 [label="IWA <= 15.5\ngini = 0.667\nsamples = 2\nvalue = [1, 1, 0]\nclass = A", fillcolor="#ffffff"] ;
103 -> 104 ;
105 [label="gini = -2.0\nsamples = 1\nvalue = [1, 0, 0]\nclass = A", fillcolor="#e58139"] ;
104 -> 105 ;
106 [label="gini = 0.0\nsamples = 1\nvalue = [0, 1, 0]\nclass = D", fillcolor="#39e581"] ;
104 -> 106 ;
107 [label="gini = nan\nsamples = 1\nvalue = [0, 0, 1]\nclass = H", fillcolor="#8139e5"] ;
103 -> 107 ;
108 [label="gini = 0.0\nsamples = 2\nvalue = [0, 1, 1]\nclass = D", fillcolor="#ffffff"] ;
102 -> 108 ;
109 [label="gini = 0.0\nsamples = 2\nvalue = [0, 2, 0]\nclass = D", fillcolor="#39e581"] ;
13 -> 109 ;
110 [label="VCH <= 4.15\ngini = 0.658\nsamples = 1463\nvalue = [588, 393, 482]\nclass = A", fillcolor="#fcf1ea"] ;
0 -> 110 [labeldistance=2.5, labelangle=-45, headlabel="False"] ;
111 [label="VCA <= 2.365\ngini = 0.662\nsamples = 1161\nvalue = [382, 336, 443]\nclass = H", fillcolor="#f5effd"] ;
110 -> 111 ;
112 [label="BWA <= 2.255\ngini = 0.645\nsamples = 212\nvalue = [96, 60, 56]\nclass = A", fillcolor="#f9e1d0"] ;
111 -> 112 ;
113 [label="LBH <= 3.05\ngini = 0.655\nsamples = 182\nvalue = [77, 55, 50]\nclass = A", fillcolor="#fae9dd"] ;
112 -> 113 ;
114 [label="WHD <= 3.15\ngini = 0.575\nsamples = 52\nvalue = [30, 9, 13]\nclass = A", fillcolor="#f4c8a9"] ;
113 -> 114 ;
115 [label="VCA <= 2.275\ngini = 0.639\nsamples = 13\nvalue = [4, 3, 6]\nclass = H", fillcolor="#e3d3f9"] ;
114 -> 115 ;
116 [label="BWH <= 3.025\ngini = 0.595\nsamples = 8\nvalue = [1, 2, 5]\nclass = H", fillcolor="#c09cf2"] ;
115 -> 116 ;
117 [label="gini = -2.0\nsamples = 3\nvalue = [0, 0, 3]\nclass = H", fillcolor="#8139e5"] ;
116 -> 117 ;
118 [label="WHA <= 2.225\ngini = 0.48\nsamples = 5\nvalue = [1, 2, 2]\nclass = D", fillcolor="#ffffff"] ;
116 -> 118 ;
119 [label="gini = -0.5\nsamples = 2\nvalue = [1, 0, 1]\nclass = A", fillcolor="#ffffff"] ;
118 -> 119 ;
120 [label="gini = 0.444\nsamples = 3\nvalue = [0, 2, 1]\nclass = D", fillcolor="#9cf2c0"] ;
118 -> 120 ;
121 [label="gini = 0.0\nsamples = 5\nvalue = [3, 1, 1]\nclass = A", fillcolor="#f2c09c"] ;
115 -> 121 ;
122 [label="IWD <= 3.05\ngini = 0.5\nsamples = 39\nvalue = [26, 6, 7]\nclass = A", fillcolor="#f0b489"] ;
114 -> 122 ;
123 [label="LBH <= 2.675\ngini = 0.593\nsamples = 9\nvalue = [4, 4, 1]\nclass = A", fillcolor="#ffffff"] ;
122 -> 123 ;
124 [label="gini = 0.0\nsamples = 2\nvalue = [2, 0, 0]\nclass = A", fillcolor="#e58139"] ;
123 -> 124 ;
125 [label="WHH <= 2.95\ngini = 0.571\nsamples = 7\nvalue = [2, 4, 1]\nclass = D", fillcolor="#b0f5cd"] ;
123 -> 125 ;
126 [label="LBH <= 2.9\ngini = 0.375\nsamples = 4\nvalue = [0, 3, 1]\nclass = D", fillcolor="#7beeab"] ;
125 -> 126 ;
127 [label="B365A <= 2.175\ngini = 0.375\nsamples = 3\nvalue = [0, 2, 1]\nclass = D", fillcolor="#9cf2c0"] ;
126 -> 127 ;
128 [label="gini = 0.0\nsamples = 1\nvalue = [0, 0, 1]\nclass = H", fillcolor="#8139e5"] ;
127 -> 128 ;
129 [label="gini = 0.0\nsamples = 2\nvalue = [0, 2, 0]\nclass = D", fillcolor="#39e581"] ;
127 -> 129 ;
130 [label="gini = nan\nsamples = 1\nvalue = [0, 1, 0]\nclass = D", fillcolor="#39e581"] ;
126 -> 130 ;
131 [label="WHH <= inf\ngini = 0.444\nsamples = 3\nvalue = [2, 1, 0]\nclass = A", fillcolor="#f2c09c"] ;
125 -> 131 ;
132 [label="gini = 0.0\nsamples = 2\nvalue = [2, 0, 0]\nclass = A", fillcolor="#e58139"] ;
131 -> 132 ;
133 [label="gini = 0.0\nsamples = 1\nvalue = [0, 1, 0]\nclass = D", fillcolor="#39e581"] ;
131 -> 133 ;
134 [label="B365H <= 2.835\ngini = 0.418\nsamples = 30\nvalue = [22, 2, 6]\nclass = A", fillcolor="#eeab7b"] ;
122 -> 134 ;
135 [label="gini = 0.0\nsamples = 1\nvalue = [0, 1, 0]\nclass = D", fillcolor="#39e581"] ;
134 -> 135 ;
136 [label="VCH <= 2.775\ngini = 0.38\nsamples = 29\nvalue = [22, 1, 6]\nclass = A", fillcolor="#eda775"] ;
134 -> 136 ;
137 [label="gini = 0.0\nsamples = 1\nvalue = [0, 0, 1]\nclass = H", fillcolor="#8139e5"] ;
136 -> 137 ;
138 [label="WHH <= 3.625\ngini = 0.349\nsamples = 28\nvalue = [22, 1, 5]\nclass = A", fillcolor="#eca26d"] ;
136 -> 138 ;
139 [label="BWH <= 2.975\ngini = 0.313\nsamples = 27\nvalue = [22, 1, 4]\nclass = A", fillcolor="#eb9c64"] ;
138 -> 139 ;
140 [label="B365D <= 3.35\ngini = 0.5\nsamples = 4\nvalue = [2, 0, 2]\nclass = A", fillcolor="#ffffff"] ;
139 -> 140 ;
141 [label="gini = 0.0\nsamples = 2\nvalue = [1, 0, 1]\nclass = A", fillcolor="#ffffff"] ;
140 -> 141 ;
142 [label="gini = 0.0\nsamples = 2\nvalue = [1, 0, 1]\nclass = A", fillcolor="#ffffff"] ;
140 -> 142 ;
143 [label="BWH <= 3.25\ngini = 0.234\nsamples = 23\nvalue = [20, 1, 2]\nclass = A", fillcolor="#e99355"] ;
139 -> 143 ;
144 [label="gini = 0.0\nsamples = 13\nvalue = [13, 0, 0]\nclass = A", fillcolor="#e58139"] ;
143 -> 144 ;
145 [label="IWH <= 3.1\ngini = 0.531\nsamples = 10\nvalue = [7, 1, 2]\nclass = A", fillcolor="#efb083"] ;
143 -> 145 ;
146 [label="WHH <= 3.05\ngini = 0.5\nsamples = 2\nvalue = [0, 1, 1]\nclass = D", fillcolor="#ffffff"] ;
145 -> 146 ;
147 [label="gini = -2.0\nsamples = 1\nvalue = [0, 1, 0]\nclass = D", fillcolor="#39e581"] ;
146 -> 147 ;
148 [label="gini = 0.0\nsamples = 1\nvalue = [0, 0, 1]\nclass = H", fillcolor="#8139e5"] ;
146 -> 148 ;
149 [label="WHH <= 3.3\ngini = 0.219\nsamples = 8\nvalue = [7, 0, 1]\nclass = A", fillcolor="#e99355"] ;
145 -> 149 ;
150 [label="gini = 0.0\nsamples = 6\nvalue = [6, 0, 0]\nclass = A", fillcolor="#e58139"] ;
149 -> 150 ;
151 [label="VCD <= 3.55\ngini = 0.5\nsamples = 2\nvalue = [1, 0, 1]\nclass = A", fillcolor="#ffffff"] ;
149 -> 151 ;
152 [label="gini = 0.0\nsamples = 1\nvalue = [0, 0, 1]\nclass = H", fillcolor="#8139e5"] ;
151 -> 152 ;
153 [label="gini = 0.0\nsamples = 1\nvalue = [1, 0, 0]\nclass = A", fillcolor="#e58139"] ;
151 -> 153 ;
154 [label="gini = 0.0\nsamples = 1\nvalue = [0, 0, 1]\nclass = H", fillcolor="#8139e5"] ;
138 -> 154 ;
155 [label="WHH <= 3.15\ngini = 0.663\nsamples = 130\nvalue = [47, 46, 37]\nclass = A", fillcolor="#fffefd"] ;
113 -> 155 ;
156 [label="IWA <= 2.15\ngini = 0.346\nsamples = 9\nvalue = [7, 2, 0]\nclass = A", fillcolor="#eca572"] ;
155 -> 156 ;
157 [label="gini = 0.0\nsamples = 6\nvalue = [6, 0, 0]\nclass = A", fillcolor="#e58139"] ;
156 -> 157 ;
158 [label="gini = 0.0\nsamples = 3\nvalue = [1, 2, 0]\nclass = D", fillcolor="#9cf2c0"] ;
156 -> 158 ;
159 [label="IWH <= 2.875\ngini = 0.665\nsamples = 121\nvalue = [40, 44, 37]\nclass = D", fillcolor="#f5fef9"] ;
155 -> 159 ;
160 [label="VCD <= 3.35\ngini = 0.278\nsamples = 6\nvalue = [1, 5, 0]\nclass = D", fillcolor="#61ea9a"] ;
159 -> 160 ;
161 [label="gini = 0.0\nsamples = 1\nvalue = [1, 0, 0]\nclass = A", fillcolor="#e58139"] ;
160 -> 161 ;
162 [label="gini = 0.0\nsamples = 5\nvalue = [0, 5, 0]\nclass = D", fillcolor="#39e581"] ;
160 -> 162 ;
163 [label="LBH <= 3.225\ngini = 0.666\nsamples = 115\nvalue = [39, 39, 37]\nclass = A", fillcolor="#ffffff"] ;
159 -> 163 ;
164 [label="B365A <= 2.05\ngini = 0.595\nsamples = 22\nvalue = [4, 6, 12]\nclass = H", fillcolor="#d0b5f5"] ;
163 -> 164 ;
165 [label="BWH <= 3.875\ngini = 0.444\nsamples = 3\nvalue = [1, 2, 0]\nclass = D", fillcolor="#9cf2c0"] ;
164 -> 165 ;
166 [label="B365H <= 3.7\ngini = 0.444\nsamples = 2\nvalue = [0, 2, 0]\nclass = D", fillcolor="#39e581"] ;
165 -> 166 ;
167 [label="gini = -4.0\nsamples = 1\nvalue = [0, 1, 0]\nclass = D", fillcolor="#39e581"] ;
166 -> 167 ;
168 [label="gini = 0.0\nsamples = 1\nvalue = [0, 1, 0]\nclass = D", fillcolor="#39e581"] ;
166 -> 168 ;
169 [label="gini = nan\nsamples = 1\nvalue = [1, 0, 0]\nclass = A", fillcolor="#e58139"] ;
165 -> 169 ;
170 [label="B365H <= 3.225\ngini = 0.532\nsamples = 19\nvalue = [3, 4, 12]\nclass = H", fillcolor="#bc95f1"] ;
164 -> 170 ;
171 [label="BWH <= 3.15\ngini = 0.611\nsamples = 6\nvalue = [1, 3, 2]\nclass = D", fillcolor="#cef8e0"] ;
170 -> 171 ;
172 [label="gini = 0.0\nsamples = 2\nvalue = [0, 0, 2]\nclass = H", fillcolor="#8139e5"] ;
171 -> 172 ;
173 [label="BWH <= 3.225\ngini = 0.375\nsamples = 4\nvalue = [1, 3, 0]\nclass = D", fillcolor="#7beeab"] ;
171 -> 173 ;
174 [label="gini = -0.5\nsamples = 2\nvalue = [0, 2, 0]\nclass = D", fillcolor="#39e581"] ;
173 -> 174 ;
175 [label="WHA <= 2.275\ngini = 0.5\nsamples = 2\nvalue = [1, 1, 0]\nclass = A", fillcolor="#ffffff"] ;
173 -> 175 ;
176 [label="gini = -2.0\nsamples = 1\nvalue = [0, 1, 0]\nclass = D", fillcolor="#39e581"] ;
175 -> 176 ;
177 [label="gini = 0.0\nsamples = 1\nvalue = [1, 0, 0]\nclass = A", fillcolor="#e58139"] ;
175 -> 177 ;
178 [label="BWD <= 3.325\ngini = 0.379\nsamples = 13\nvalue = [2, 1, 10]\nclass = H", fillcolor="#a36fec"] ;
170 -> 178 ;
179 [label="BWD <= 3.275\ngini = 0.18\nsamples = 9\nvalue = [0, 1, 8]\nclass = H", fillcolor="#9152e8"] ;
178 -> 179 ;
180 [label="LBA <= 2.125\ngini = 0.5\nsamples = 2\nvalue = [0, 1, 1]\nclass = D", fillcolor="#ffffff"] ;
179 -> 180 ;
181 [label="gini = 0.0\nsamples = 1\nvalue = [0, 0, 1]\nclass = H", fillcolor="#8139e5"] ;
180 -> 181 ;
182 [label="gini = 0.0\nsamples = 1\nvalue = [0, 1, 0]\nclass = D", fillcolor="#39e581"] ;
180 -> 182 ;
183 [label="gini = 0.0\nsamples = 7\nvalue = [0, 0, 7]\nclass = H", fillcolor="#8139e5"] ;
179 -> 183 ;
184 [label="VCD <= 3.35\ngini = 0.444\nsamples = 4\nvalue = [2, 0, 2]\nclass = A", fillcolor="#ffffff"] ;
178 -> 184 ;
185 [label="gini = 0.0\nsamples = 2\nvalue = [2, 0, 0]\nclass = A", fillcolor="#e58139"] ;
184 -> 185 ;
186 [label="gini = 0.0\nsamples = 2\nvalue = [0, 0, 2]\nclass = H", fillcolor="#8139e5"] ;
184 -> 186 ;
187 [label="BWH <= 4.125\ngini = 0.66\nsamples = 93\nvalue = [35, 33, 25]\nclass = A", fillcolor="#fefbf8"] ;
163 -> 187 ;
188 [label="WHA <= 1.93\ngini = 0.655\nsamples = 89\nvalue = [34, 33, 22]\nclass = A", fillcolor="#fffdfb"] ;
187 -> 188 ;
189 [label="BWH <= 3.875\ngini = 0.592\nsamples = 13\nvalue = [4, 2, 7]\nclass = H", fillcolor="#d5bdf6"] ;
188 -> 189 ;
190 [label="WHH <= 3.9\ngini = 0.56\nsamples = 9\nvalue = [1, 2, 6]\nclass = H", fillcolor="#b78ef0"] ;
189 -> 190 ;
191 [label="B365H <= 3.55\ngini = 0.375\nsamples = 8\nvalue = [0, 2, 6]\nclass = H", fillcolor="#ab7bee"] ;
190 -> 191 ;
192 [label="gini = 0.0\nsamples = 1\nvalue = [0, 1, 0]\nclass = D", fillcolor="#39e581"] ;
191 -> 192 ;
193 [label="WHA <= 1.815\ngini = 0.245\nsamples = 7\nvalue = [0, 1, 6]\nclass = H", fillcolor="#965ae9"] ;
191 -> 193 ;
194 [label="gini = 0.0\nsamples = 1\nvalue = [0, 1, 0]\nclass = D", fillcolor="#39e581"] ;
193 -> 194 ;
195 [label="gini = 0.0\nsamples = 6\nvalue = [0, 0, 6]\nclass = H", fillcolor="#8139e5"] ;
193 -> 195 ;
196 [label="gini = 0.0\nsamples = 1\nvalue = [1, 0, 0]\nclass = A", fillcolor="#e58139"] ;
190 -> 196 ;
197 [label="B365D <= 3.8\ngini = 0.444\nsamples = 4\nvalue = [3, 0, 1]\nclass = A", fillcolor="#eeab7b"] ;
189 -> 197 ;
198 [label="IWH <= 3.7\ngini = 0.375\nsamples = 3\nvalue = [3, 0, 0]\nclass = A", fillcolor="#e58139"] ;
197 -> 198 ;
199 [label="gini = 0.0\nsamples = 2\nvalue = [2, 0, 0]\nclass = A", fillcolor="#e58139"] ;
198 -> 199 ;
200 [label="gini = nan\nsamples = 1\nvalue = [1, 0, 0]\nclass = A", fillcolor="#e58139"] ;
198 -> 200 ;
201 [label="gini = nan\nsamples = 1\nvalue = [0, 0, 1]\nclass = H", fillcolor="#8139e5"] ;
197 -> 201 ;
202 [label="LBH <= 3.9\ngini = 0.639\nsamples = 76\nvalue = [30, 31, 15]\nclass = D", fillcolor="#fbfefc"] ;
188 -> 202 ;
203 [label="BWD <= 3.375\ngini = 0.631\nsamples = 72\nvalue = [30, 29, 13]\nclass = A", fillcolor="#fefcfa"] ;
202 -> 203 ;
204 [label="IWD <= 3.25\ngini = 0.597\nsamples = 40\nvalue = [21, 12, 7]\nclass = A", fillcolor="#f7d6bf"] ;
203 -> 204 ;
205 [label="B365D <= 3.35\ngini = 0.531\nsamples = 8\nvalue = [2, 5, 1]\nclass = D", fillcolor="#9cf2c0"] ;
204 -> 205 ;
206 [label="BWH <= 3.75\ngini = 0.5\nsamples = 5\nvalue = [1, 4, 0]\nclass = D", fillcolor="#6aeca0"] ;
205 -> 206 ;
207 [label="VCH <= 3.7\ngini = 0.32\nsamples = 4\nvalue = [0, 4, 0]\nclass = D", fillcolor="#39e581"] ;
206 -> 207 ;
208 [label="gini = 0.0\nsamples = 3\nvalue = [0, 3, 0]\nclass = D", fillcolor="#39e581"] ;
207 -> 208 ;
209 [label="gini = nan\nsamples = 1\nvalue = [0, 1, 0]\nclass = D", fillcolor="#39e581"] ;
207 -> 209 ;
210 [label="gini = nan\nsamples = 1\nvalue = [1, 0, 0]\nclass = A", fillcolor="#e58139"] ;
206 -> 210 ;
211 [label="BWD <= 3.25\ngini = 0.5\nsamples = 3\nvalue = [1, 1, 1]\nclass = A", fillcolor="#ffffff"] ;
205 -> 211 ;
212 [label="gini = 0.0\nsamples = 1\nvalue = [1, 0, 0]\nclass = A", fillcolor="#e58139"] ;
211 -> 212 ;
213 [label="LBH <= 3.45\ngini = 0.5\nsamples = 2\nvalue = [0, 1, 1]\nclass = D", fillcolor="#ffffff"] ;
211 -> 213 ;
214 [label="gini = 0.0\nsamples = 1\nvalue = [0, 0, 1]\nclass = H", fillcolor="#8139e5"] ;
213 -> 214 ;
215 [label="gini = 0.0\nsamples = 1\nvalue = [0, 1, 0]\nclass = D", fillcolor="#39e581"] ;
213 -> 215 ;
216 [label="LBH <= 3.675\ngini = 0.564\nsamples = 32\nvalue = [19, 7, 6]\nclass = A", fillcolor="#f3c3a0"] ;
204 -> 216 ;
217 [label="WHD <= 3.15\ngini = 0.511\nsamples = 28\nvalue = [18, 5, 5]\nclass = A", fillcolor="#f0b88f"] ;
216 -> 217 ;
218 [label="VCA <= 2.175\ngini = 0.48\nsamples = 5\nvalue = [2, 3, 0]\nclass = D", fillcolor="#bdf6d5"] ;
217 -> 218 ;
219 [label="gini = 0.0\nsamples = 2\nvalue = [2, 0, 0]\nclass = A", fillcolor="#e58139"] ;
218 -> 219 ;
220 [label="gini = 0.0\nsamples = 3\nvalue = [0, 3, 0]\nclass = D", fillcolor="#39e581"] ;
218 -> 220 ;
221 [label="BWD <= 3.225\ngini = 0.461\nsamples = 23\nvalue = [16, 2, 5]\nclass = A", fillcolor="#efb286"] ;
217 -> 221 ;
222 [label="LBD <= 3.35\ngini = 0.5\nsamples = 2\nvalue = [0, 1, 1]\nclass = D", fillcolor="#ffffff"] ;
221 -> 222 ;
223 [label="gini = 0.0\nsamples = 1\nvalue = [0, 1, 0]\nclass = D", fillcolor="#39e581"] ;
222 -> 223 ;
224 [label="gini = 0.0\nsamples = 1\nvalue = [0, 0, 1]\nclass = H", fillcolor="#8139e5"] ;
222 -> 224 ;
225 [label="VCD <= 3.45\ngini = 0.381\nsamples = 21\nvalue = [16, 1, 4]\nclass = A", fillcolor="#eda673"] ;
221 -> 225 ;
226 [label="IWA <= 2.25\ngini = 0.357\nsamples = 13\nvalue = [11, 1, 1]\nclass = A", fillcolor="#e9965a"] ;
225 -> 226 ;
227 [label="gini = 0.0\nsamples = 10\nvalue = [10, 0, 0]\nclass = A", fillcolor="#e58139"] ;
226 -> 227 ;
228 [label="BWH <= 3.325\ngini = 0.5\nsamples = 3\nvalue = [1, 1, 1]\nclass = A", fillcolor="#ffffff"] ;
226 -> 228 ;
229 [label="gini = 0.0\nsamples = 1\nvalue = [0, 1, 0]\nclass = D", fillcolor="#39e581"] ;
228 -> 229 ;
230 [label="WHD <= 3.225\ngini = 0.5\nsamples = 2\nvalue = [1, 0, 1]\nclass = A", fillcolor="#ffffff"] ;
228 -> 230 ;
231 [label="gini = 0.0\nsamples = 1\nvalue = [1, 0, 0]\nclass = A", fillcolor="#e58139"] ;
230 -> 231 ;
232 [label="gini = 0.0\nsamples = 1\nvalue = [0, 0, 1]\nclass = H", fillcolor="#8139e5"] ;
230 -> 232 ;
233 [label="WHD <= 3.25\ngini = 0.408\nsamples = 8\nvalue = [5, 0, 3]\nclass = A", fillcolor="#f5cdb0"] ;
225 -> 233 ;
234 [label="gini = 0.0\nsamples = 4\nvalue = [3, 0, 1]\nclass = A", fillcolor="#eeab7b"] ;
233 -> 234 ;
235 [label="WHA <= 2.175\ngini = 0.375\nsamples = 4\nvalue = [2, 0, 2]\nclass = A", fillcolor="#ffffff"] ;
233 -> 235 ;
236 [label="gini = 0.0\nsamples = 2\nvalue = [2, 0, 0]\nclass = A", fillcolor="#e58139"] ;
235 -> 236 ;
237 [label="gini = 0.0\nsamples = 2\nvalue = [0, 0, 2]\nclass = H", fillcolor="#8139e5"] ;
235 -> 237 ;
238 [label="B365D <= 3.25\ngini = 0.444\nsamples = 4\nvalue = [1, 2, 1]\nclass = D", fillcolor="#bdf6d5"] ;
216 -> 238 ;
239 [label="gini = 0.0\nsamples = 2\nvalue = [0, 2, 0]\nclass = D", fillcolor="#39e581"] ;
238 -> 239 ;
240 [label="LBD <= 3.275\ngini = 0.5\nsamples = 2\nvalue = [1, 0, 1]\nclass = A", fillcolor="#ffffff"] ;
238 -> 240 ;
241 [label="gini = 0.0\nsamples = 1\nvalue = [0, 0, 1]\nclass = H", fillcolor="#8139e5"] ;
240 -> 241 ;
242 [label="gini = 0.0\nsamples = 1\nvalue = [1, 0, 0]\nclass = A", fillcolor="#e58139"] ;
240 -> 242 ;
243 [label="LBD <= 3.35\ngini = 0.595\nsamples = 32\nvalue = [9, 17, 6]\nclass = D", fillcolor="#baf6d3"] ;
203 -> 243 ;
244 [label="gini = 0.0\nsamples = 5\nvalue = [0, 5, 0]\nclass = D", fillcolor="#39e581"] ;
243 -> 244 ;
245 [label="LBA <= 2.125\ngini = 0.642\nsamples = 27\nvalue = [9, 12, 6]\nclass = D", fillcolor="#defbea"] ;
243 -> 245 ;
246 [label="IWH <= 3.95\ngini = 0.637\nsamples = 24\nvalue = [9, 11, 4]\nclass = D", fillcolor="#e5fcee"] ;
245 -> 246 ;
247 [label="B365D <= 3.45\ngini = 0.628\nsamples = 22\nvalue = [9, 10, 3]\nclass = D", fillcolor="#f0fdf5"] ;
246 -> 247 ;
248 [label="BWD <= 3.55\ngini = 0.556\nsamples = 12\nvalue = [7, 5, 0]\nclass = A", fillcolor="#f8dbc6"] ;
247 -> 248 ;
249 [label="B365A <= 2.125\ngini = 0.486\nsamples = 11\nvalue = [6, 5, 0]\nclass = A", fillcolor="#fbeade"] ;
248 -> 249 ;
250 [label="IWD <= 3.5\ngini = 0.496\nsamples = 10\nvalue = [5, 5, 0]\nclass = A", fillcolor="#ffffff"] ;
249 -> 250 ;
251 [label="WHD <= 3.45\ngini = 0.5\nsamples = 9\nvalue = [5, 4, 0]\nclass = A", fillcolor="#fae6d7"] ;
250 -> 251 ;
252 [label="VCA <= 2.125\ngini = 0.494\nsamples = 8\nvalue = [4, 4, 0]\nclass = A", fillcolor="#ffffff"] ;
251 -> 252 ;
253 [label="LBH <= 3.5\ngini = 0.444\nsamples = 5\nvalue = [4, 1, 0]\nclass = A", fillcolor="#eca06a"] ;
252 -> 253 ;
254 [label="gini = 0.0\nsamples = 3\nvalue = [3, 0, 0]\nclass = A", fillcolor="#e58139"] ;
253 -> 254 ;
255 [label="gini = 0.0\nsamples = 2\nvalue = [1, 1, 0]\nclass = A", fillcolor="#ffffff"] ;
253 -> 255 ;
256 [label="gini = 0.0\nsamples = 3\nvalue = [0, 3, 0]\nclass = D", fillcolor="#39e581"] ;
252 -> 256 ;
257 [label="gini = nan\nsamples = 1\nvalue = [1, 0, 0]\nclass = A", fillcolor="#e58139"] ;
251 -> 257 ;
258 [label="gini = nan\nsamples = 1\nvalue = [0, 1, 0]\nclass = D", fillcolor="#39e581"] ;
250 -> 258 ;
259 [label="gini = nan\nsamples = 1\nvalue = [1, 0, 0]\nclass = A", fillcolor="#e58139"] ;
249 -> 259 ;
260 [label="gini = nan\nsamples = 1\nvalue = [1, 0, 0]\nclass = A", fillcolor="#e58139"] ;
248 -> 260 ;
261 [label="LBH <= 3.45\ngini = 0.593\nsamples = 10\nvalue = [2, 5, 3]\nclass = D", fillcolor="#c6f8db"] ;
247 -> 261 ;
262 [label="gini = 0.0\nsamples = 3\nvalue = [0, 0, 3]\nclass = H", fillcolor="#8139e5"] ;
261 -> 262 ;
263 [label="IWD <= 3.525\ngini = 0.408\nsamples = 7\nvalue = [2, 5, 0]\nclass = D", fillcolor="#88efb3"] ;
261 -> 263 ;
264 [label="VCH <= 3.9\ngini = 0.278\nsamples = 5\nvalue = [0, 5, 0]\nclass = D", fillcolor="#39e581"] ;
263 -> 264 ;
265 [label="gini = 0.0\nsamples = 4\nvalue = [0, 4, 0]\nclass = D", fillcolor="#39e581"] ;
264 -> 265 ;
266 [label="gini = nan\nsamples = 1\nvalue = [0, 1, 0]\nclass = D", fillcolor="#39e581"] ;
264 -> 266 ;
267 [label="gini = 0.0\nsamples = 2\nvalue = [2, 0, 0]\nclass = A", fillcolor="#e58139"] ;
263 -> 267 ;
268 [label="gini = 0.0\nsamples = 2\nvalue = [0, 1, 1]\nclass = D", fillcolor="#ffffff"] ;
246 -> 268 ;
269 [label="BWH <= 3.25\ngini = 0.5\nsamples = 3\nvalue = [0, 1, 2]\nclass = H", fillcolor="#c09cf2"] ;
245 -> 269 ;
270 [label="gini = 0.0\nsamples = 1\nvalue = [0, 1, 0]\nclass = D", fillcolor="#39e581"] ;
269 -> 270 ;
271 [label="gini = 0.0\nsamples = 2\nvalue = [0, 0, 2]\nclass = H", fillcolor="#8139e5"] ;
269 -> 271 ;
272 [label="B365A <= 2.025\ngini = 0.444\nsamples = 4\nvalue = [0, 2, 2]\nclass = D", fillcolor="#ffffff"] ;
202 -> 272 ;
273 [label="gini = 0.0\nsamples = 2\nvalue = [0, 2, 0]\nclass = D", fillcolor="#39e581"] ;
272 -> 273 ;
274 [label="gini = 0.0\nsamples = 2\nvalue = [0, 0, 2]\nclass = H", fillcolor="#8139e5"] ;
272 -> 274 ;
275 [label="gini = 0.0\nsamples = 4\nvalue = [1, 0, 3]\nclass = H", fillcolor="#ab7bee"] ;
187 -> 275 ;
276 [label="WHD <= 2.95\ngini = 0.509\nsamples = 30\nvalue = [19, 5, 6]\nclass = A", fillcolor="#f1bb94"] ;
112 -> 276 ;
277 [label="gini = 0.0\nsamples = 2\nvalue = [0, 2, 0]\nclass = D", fillcolor="#39e581"] ;
276 -> 277 ;
278 [label="LBH <= 2.725\ngini = 0.482\nsamples = 28\nvalue = [19, 3, 6]\nclass = A", fillcolor="#f0b58a"] ;
276 -> 278 ;
279 [label="gini = 0.542\nsamples = 12\nvalue = [6, 1, 5]\nclass = A", fillcolor="#fbede3"] ;
278 -> 279 ;
280 [label="BWA <= 2.325\ngini = 0.406\nsamples = 16\nvalue = [13, 2, 1]\nclass = A", fillcolor="#eb9c63"] ;
278 -> 280 ;
281 [label="WHH <= 3.225\ngini = 0.379\nsamples = 11\nvalue = [9, 2, 0]\nclass = A", fillcolor="#eb9d65"] ;
280 -> 281 ;
282 [label="IWD <= 3.25\ngini = 0.5\nsamples = 4\nvalue = [2, 2, 0]\nclass = A", fillcolor="#ffffff"] ;
281 -> 282 ;
283 [label="gini = 0.0\nsamples = 2\nvalue = [0, 2, 0]\nclass = D", fillcolor="#39e581"] ;
282 -> 283 ;
284 [label="gini = 0.0\nsamples = 2\nvalue = [2, 0, 0]\nclass = A", fillcolor="#e58139"] ;
282 -> 284 ;
285 [label="gini = 0.0\nsamples = 7\nvalue = [7, 0, 0]\nclass = A", fillcolor="#e58139"] ;
281 -> 285 ;
286 [label="gini = 0.0\nsamples = 5\nvalue = [4, 0, 1]\nclass = A", fillcolor="#eca06a"] ;
280 -> 286 ;
287 [label="BWH <= 2.425\ngini = 0.658\nsamples = 949\nvalue = [286, 276, 387]\nclass = H", fillcolor="#ece1fb"] ;
111 -> 287 ;
288 [label="B365H <= 2.375\ngini = 0.649\nsamples = 593\nvalue = [170, 161, 262]\nclass = H", fillcolor="#e4d4f9"] ;
287 -> 288 ;
289 [label="gini = 0.655\nsamples = 487\nvalue = [145, 140, 202]\nclass = H", fillcolor="#eadefb"] ;
288 -> 289 ;
290 [label="VCA <= 3.05\ngini = 0.591\nsamples = 106\nvalue = [25, 21, 60]\nclass = H", fillcolor="#c9a9f4"] ;
288 -> 290 ;
291 [label="WHH <= 2.39\ngini = 0.579\nsamples = 73\nvalue = [18, 14, 41]\nclass = H", fillcolor="#caacf4"] ;
290 -> 291 ;
292 [label="B365A <= 2.875\ngini = 0.524\nsamples = 40\nvalue = [4, 11, 25]\nclass = H", fillcolor="#c29ff2"] ;
291 -> 292 ;
293 [label="WHA <= 2.94\ngini = 0.227\nsamples = 16\nvalue = [1, 1, 14]\nclass = H", fillcolor="#9253e8"] ;
292 -> 293 ;
294 [label="VCA <= 2.625\ngini = 0.124\nsamples = 15\nvalue = [0, 1, 14]\nclass = H", fillcolor="#8a47e7"] ;
293 -> 294 ;
295 [label="WHH <= 2.315\ngini = 0.5\nsamples = 2\nvalue = [0, 1, 1]\nclass = D", fillcolor="#ffffff"] ;
294 -> 295 ;
296 [label="gini = 0.0\nsamples = 1\nvalue = [0, 0, 1]\nclass = H", fillcolor="#8139e5"] ;
295 -> 296 ;
297 [label="gini = 0.0\nsamples = 1\nvalue = [0, 1, 0]\nclass = D", fillcolor="#39e581"] ;
295 -> 297 ;
298 [label="gini = 0.0\nsamples = 13\nvalue = [0, 0, 13]\nclass = H", fillcolor="#8139e5"] ;
294 -> 298 ;
299 [label="gini = 0.0\nsamples = 1\nvalue = [1, 0, 0]\nclass = A", fillcolor="#e58139"] ;
293 -> 299 ;
300 [label="VCA <= 2.89\ngini = 0.601\nsamples = 24\nvalue = [3, 10, 11]\nclass = H", fillcolor="#f6f1fd"] ;
292 -> 300 ;
301 [label="BWH <= 2.275\ngini = 0.554\nsamples = 16\nvalue = [2, 10, 4]\nclass = D", fillcolor="#9cf2c0"] ;
300 -> 301 ;
302 [label="LBH <= 2.225\ngini = 0.444\nsamples = 6\nvalue = [0, 2, 4]\nclass = H", fillcolor="#c09cf2"] ;
301 -> 302 ;
303 [label="B365H <= 2.39\ngini = 0.48\nsamples = 4\nvalue = [0, 1, 3]\nclass = H", fillcolor="#ab7bee"] ;
302 -> 303 ;
304 [label="gini = 0.0\nsamples = 2\nvalue = [0, 0, 2]\nclass = H", fillcolor="#8139e5"] ;
303 -> 304 ;
305 [label="WHD <= 3.3\ngini = 0.5\nsamples = 2\nvalue = [0, 1, 1]\nclass = D", fillcolor="#ffffff"] ;
303 -> 305 ;
306 [label="gini = 0.0\nsamples = 1\nvalue = [0, 1, 0]\nclass = D", fillcolor="#39e581"] ;
305 -> 306 ;
307 [label="gini = 0.0\nsamples = 1\nvalue = [0, 0, 1]\nclass = H", fillcolor="#8139e5"] ;
305 -> 307 ;
308 [label="gini = 0.0\nsamples = 2\nvalue = [0, 1, 1]\nclass = D", fillcolor="#ffffff"] ;
302 -> 308 ;
309 [label="BWA <= 2.875\ngini = 0.32\nsamples = 10\nvalue = [2, 8, 0]\nclass = D", fillcolor="#6aeca0"] ;
301 -> 309 ;
310 [label="WHA <= 2.685\ngini = 0.219\nsamples = 7\nvalue = [0, 7, 0]\nclass = D", fillcolor="#39e581"] ;
309 -> 310 ;
311 [label="gini = 0.0\nsamples = 2\nvalue = [0, 2, 0]\nclass = D", fillcolor="#39e581"] ;
310 -> 311 ;
312 [label="gini = 0.0\nsamples = 5\nvalue = [0, 5, 0]\nclass = D", fillcolor="#39e581"] ;
310 -> 312 ;
313 [label="IWA <= 2.825\ngini = 0.5\nsamples = 3\nvalue = [2, 1, 0]\nclass = A", fillcolor="#f2c09c"] ;
309 -> 313 ;
314 [label="LBA <= 2.7\ngini = 0.444\nsamples = 2\nvalue = [1, 1, 0]\nclass = A", fillcolor="#ffffff"] ;
313 -> 314 ;
315 [label="gini = 0.0\nsamples = 1\nvalue = [0, 1, 0]\nclass = D", fillcolor="#39e581"] ;
314 -> 315 ;
316 [label="gini = 0.0\nsamples = 1\nvalue = [1, 0, 0]\nclass = A", fillcolor="#e58139"] ;
314 -> 316 ;
317 [label="gini = nan\nsamples = 1\nvalue = [1, 0, 0]\nclass = A", fillcolor="#e58139"] ;
313 -> 317 ;
318 [label="IWA <= 3.05\ngini = 0.245\nsamples = 8\nvalue = [1, 0, 7]\nclass = H", fillcolor="#9355e9"] ;
300 -> 318 ;
319 [label="LBH <= 2.225\ngini = 0.219\nsamples = 7\nvalue = [1, 0, 6]\nclass = H", fillcolor="#965ae9"] ;
318 -> 319 ;
320 [label="gini = 0.0\nsamples = 4\nvalue = [0, 0, 4]\nclass = H", fillcolor="#8139e5"] ;
319 -> 320 ;
321 [label="BWA <= 2.9\ngini = 0.5\nsamples = 3\nvalue = [1, 0, 2]\nclass = H", fillcolor="#c09cf2"] ;
319 -> 321 ;
322 [label="WHH <= 2.34\ngini = 0.444\nsamples = 2\nvalue = [0, 0, 2]\nclass = H", fillcolor="#8139e5"] ;
321 -> 322 ;
323 [label="gini = -4.0\nsamples = 1\nvalue = [0, 0, 1]\nclass = H", fillcolor="#8139e5"] ;
322 -> 323 ;
324 [label="gini = 0.0\nsamples = 1\nvalue = [0, 0, 1]\nclass = H", fillcolor="#8139e5"] ;
322 -> 324 ;
325 [label="gini = nan\nsamples = 1\nvalue = [1, 0, 0]\nclass = A", fillcolor="#e58139"] ;
321 -> 325 ;
326 [label="gini = nan\nsamples = 1\nvalue = [0, 0, 1]\nclass = H", fillcolor="#8139e5"] ;
318 -> 326 ;
327 [label="IWA <= 2.825\ngini = 0.577\nsamples = 33\nvalue = [14, 3, 16]\nclass = H", fillcolor="#f2eafc"] ;
291 -> 327 ;
328 [label="LBH <= 2.45\ngini = 0.568\nsamples = 17\nvalue = [10, 2, 5]\nclass = A", fillcolor="#f4caac"] ;
327 -> 328 ;
329 [label="WHA <= 2.95\ngini = 0.52\nsamples = 13\nvalue = [9, 2, 2]\nclass = A", fillcolor="#eeaf81"] ;
328 -> 329 ;
330 [label="WHD <= 3.35\ngini = 0.5\nsamples = 11\nvalue = [8, 1, 2]\nclass = A", fillcolor="#eeab7b"] ;
329 -> 330 ;
331 [label="IWD <= 3.25\ngini = 0.34\nsamples = 9\nvalue = [7, 1, 1]\nclass = A", fillcolor="#eca06a"] ;
330 -> 331 ;
332 [label="gini = 0.245\nsamples = 6\nvalue = [5, 0, 1]\nclass = A", fillcolor="#ea9a61"] ;
331 -> 332 ;
333 [label="LBA <= 2.675\ngini = 0.5\nsamples = 3\nvalue = [2, 1, 0]\nclass = A", fillcolor="#f2c09c"] ;
331 -> 333 ;
334 [label="gini = 0.0\nsamples = 1\nvalue = [0, 1, 0]\nclass = D", fillcolor="#39e581"] ;
333 -> 334 ;
335 [label="gini = 0.0\nsamples = 2\nvalue = [2, 0, 0]\nclass = A", fillcolor="#e58139"] ;
333 -> 335 ;
336 [label="gini = 0.0\nsamples = 2\nvalue = [1, 0, 1]\nclass = A", fillcolor="#ffffff"] ;
330 -> 336 ;
337 [label="gini = 0.0\nsamples = 2\nvalue = [1, 1, 0]\nclass = A", fillcolor="#ffffff"] ;
329 -> 337 ;
338 [label="IWH <= 2.45\ngini = 0.444\nsamples = 4\nvalue = [1, 0, 3]\nclass = H", fillcolor="#ab7bee"] ;
328 -> 338 ;
339 [label="gini = -0.5\nsamples = 2\nvalue = [0, 0, 2]\nclass = H", fillcolor="#8139e5"] ;
338 -> 339 ;
340 [label="VCA <= 2.81\ngini = 0.5\nsamples = 2\nvalue = [1, 0, 1]\nclass = A", fillcolor="#ffffff"] ;
338 -> 340 ;
341 [label="gini = -2.0\nsamples = 1\nvalue = [1, 0, 0]\nclass = A", fillcolor="#e58139"] ;
340 -> 341 ;
342 [label="gini = 0.0\nsamples = 1\nvalue = [0, 0, 1]\nclass = H", fillcolor="#8139e5"] ;
340 -> 342 ;
343 [label="B365A <= 2.95\ngini = 0.48\nsamples = 16\nvalue = [4, 1, 11]\nclass = H", fillcolor="#b68cf0"] ;
327 -> 343 ;
344 [label="VCH <= 2.525\ngini = 0.278\nsamples = 11\nvalue = [1, 0, 10]\nclass = H", fillcolor="#8e4de8"] ;
343 -> 344 ;
345 [label="gini = 0.0\nsamples = 8\nvalue = [0, 0, 8]\nclass = H", fillcolor="#8139e5"] ;
344 -> 345 ;
346 [label="IWA <= 2.95\ngini = 0.5\nsamples = 3\nvalue = [1, 0, 2]\nclass = H", fillcolor="#c09cf2"] ;
344 -> 346 ;
347 [label="B365A <= 2.84\ngini = 0.444\nsamples = 2\nvalue = [1, 0, 1]\nclass = A", fillcolor="#ffffff"] ;
346 -> 347 ;
348 [label="gini = -2.0\nsamples = 1\nvalue = [0, 0, 1]\nclass = H", fillcolor="#8139e5"] ;
347 -> 348 ;
349 [label="gini = 0.0\nsamples = 1\nvalue = [1, 0, 0]\nclass = A", fillcolor="#e58139"] ;
347 -> 349 ;
350 [label="gini = nan\nsamples = 1\nvalue = [0, 0, 1]\nclass = H", fillcolor="#8139e5"] ;
346 -> 350 ;
351 [label="VCH <= 2.425\ngini = 0.625\nsamples = 5\nvalue = [3, 1, 1]\nclass = A", fillcolor="#f2c09c"] ;
343 -> 351 ;
352 [label="BWA <= 3.05\ngini = 0.375\nsamples = 3\nvalue = [2, 0, 1]\nclass = A", fillcolor="#f2c09c"] ;
351 -> 352 ;
353 [label="IWA <= 3.0\ngini = 0.444\nsamples = 2\nvalue = [1, 0, 1]\nclass = A", fillcolor="#ffffff"] ;
352 -> 353 ;
354 [label="gini = -2.0\nsamples = 1\nvalue = [1, 0, 0]\nclass = A", fillcolor="#e58139"] ;
353 -> 354 ;
355 [label="gini = 0.0\nsamples = 1\nvalue = [0, 0, 1]\nclass = H", fillcolor="#8139e5"] ;
353 -> 355 ;
356 [label="gini = nan\nsamples = 1\nvalue = [1, 0, 0]\nclass = A", fillcolor="#e58139"] ;
352 -> 356 ;
357 [label="gini = 0.0\nsamples = 2\nvalue = [1, 1, 0]\nclass = A", fillcolor="#ffffff"] ;
351 -> 357 ;
358 [label="VCA <= 3.165\ngini = 0.597\nsamples = 33\nvalue = [7, 7, 19]\nclass = H", fillcolor="#c5a4f3"] ;
290 -> 358 ;
359 [label="B365D <= 3.275\ngini = 0.631\nsamples = 15\nvalue = [7, 3, 5]\nclass = A", fillcolor="#fae6d7"] ;
358 -> 359 ;
360 [label="B365A <= 3.05\ngini = 0.542\nsamples = 11\nvalue = [6, 1, 4]\nclass = A", fillcolor="#f8dbc6"] ;
359 -> 360 ;
361 [label="LBD <= 3.275\ngini = 0.48\nsamples = 9\nvalue = [6, 0, 3]\nclass = A", fillcolor="#f2c09c"] ;
360 -> 361 ;
362 [label="VCH <= 2.575\ngini = 0.469\nsamples = 7\nvalue = [5, 0, 2]\nclass = A", fillcolor="#efb388"] ;
361 -> 362 ;
363 [label="WHD <= 3.15\ngini = 0.408\nsamples = 6\nvalue = [5, 0, 1]\nclass = A", fillcolor="#ea9a61"] ;
362 -> 363 ;
364 [label="gini = -0.889\nsamples = 3\nvalue = [3, 0, 0]\nclass = A", fillcolor="#e58139"] ;
363 -> 364 ;
365 [label="LBH <= 2.39\ngini = 0.667\nsamples = 3\nvalue = [2, 0, 1]\nclass = A", fillcolor="#f2c09c"] ;
363 -> 365 ;
366 [label="IWA <= 2.675\ngini = 0.444\nsamples = 2\nvalue = [1, 0, 1]\nclass = A", fillcolor="#ffffff"] ;
365 -> 366 ;
367 [label="gini = -2.0\nsamples = 1\nvalue = [1, 0, 0]\nclass = A", fillcolor="#e58139"] ;
366 -> 367 ;
368 [label="gini = 0.0\nsamples = 1\nvalue = [0, 0, 1]\nclass = H", fillcolor="#8139e5"] ;
366 -> 368 ;
369 [label="gini = nan\nsamples = 1\nvalue = [1, 0, 0]\nclass = A", fillcolor="#e58139"] ;
365 -> 369 ;
370 [label="gini = nan\nsamples = 1\nvalue = [0, 0, 1]\nclass = H", fillcolor="#8139e5"] ;
362 -> 370 ;
371 [label="gini = 0.0\nsamples = 2\nvalue = [1, 0, 1]\nclass = A", fillcolor="#ffffff"] ;
361 -> 371 ;
372 [label="gini = 0.0\nsamples = 2\nvalue = [0, 1, 1]\nclass = D", fillcolor="#ffffff"] ;
360 -> 372 ;
373 [label="B365H <= 2.39\ngini = 0.444\nsamples = 4\nvalue = [1, 2, 1]\nclass = D", fillcolor="#bdf6d5"] ;
359 -> 373 ;
374 [label="BWA <= 2.875\ngini = 0.5\nsamples = 2\nvalue = [1, 0, 1]\nclass = A", fillcolor="#ffffff"] ;
373 -> 374 ;
375 [label="gini = -2.0\nsamples = 1\nvalue = [1, 0, 0]\nclass = A", fillcolor="#e58139"] ;
374 -> 375 ;
376 [label="gini = 0.0\nsamples = 1\nvalue = [0, 0, 1]\nclass = H", fillcolor="#8139e5"] ;
374 -> 376 ;
377 [label="gini = 0.0\nsamples = 2\nvalue = [0, 2, 0]\nclass = D", fillcolor="#39e581"] ;
373 -> 377 ;
378 [label="WHD <= 3.225\ngini = 0.346\nsamples = 18\nvalue = [0, 4, 14]\nclass = H", fillcolor="#a572ec"] ;
358 -> 378 ;
379 [label="B365D <= 3.225\ngini = 0.305\nsamples = 15\nvalue = [0, 2, 13]\nclass = H", fillcolor="#9457e9"] ;
378 -> 379 ;
380 [label="BWA <= 3.225\ngini = 0.245\nsamples = 13\nvalue = [0, 1, 12]\nclass = H", fillcolor="#8c49e7"] ;
379 -> 380 ;
381 [label="gini = 0.0\nsamples = 11\nvalue = [0, 0, 11]\nclass = H", fillcolor="#8139e5"] ;
380 -> 381 ;
382 [label="gini = 0.0\nsamples = 2\nvalue = [0, 1, 1]\nclass = D", fillcolor="#ffffff"] ;
380 -> 382 ;
383 [label="gini = 0.0\nsamples = 2\nvalue = [0, 1, 1]\nclass = D", fillcolor="#ffffff"] ;
379 -> 383 ;
384 [label="VCH <= 2.39\ngini = 0.5\nsamples = 3\nvalue = [0, 2, 1]\nclass = D", fillcolor="#9cf2c0"] ;
378 -> 384 ;
385 [label="gini = 0.0\nsamples = 1\nvalue = [0, 0, 1]\nclass = H", fillcolor="#8139e5"] ;
384 -> 385 ;
386 [label="gini = 0.0\nsamples = 2\nvalue = [0, 2, 0]\nclass = D", fillcolor="#39e581"] ;
384 -> 386 ;
387 [label="IWA <= 2.375\ngini = 0.666\nsamples = 356\nvalue = [116, 115, 125]\nclass = H", fillcolor="#faf8fe"] ;
287 -> 387 ;
388 [label="WHH <= 2.775\ngini = 0.563\nsamples = 39\nvalue = [10, 6, 23]\nclass = H", fillcolor="#c7a6f3"] ;
387 -> 388 ;
389 [label="LBH <= 2.775\ngini = 0.32\nsamples = 5\nvalue = [4, 1, 0]\nclass = A", fillcolor="#eca06a"] ;
388 -> 389 ;
390 [label="BWH <= 2.925\ngini = 0.375\nsamples = 3\nvalue = [3, 0, 0]\nclass = A", fillcolor="#e58139"] ;
389 -> 390 ;
391 [label="gini = 0.0\nsamples = 2\nvalue = [2, 0, 0]\nclass = A", fillcolor="#e58139"] ;
390 -> 391 ;
392 [label="gini = nan\nsamples = 1\nvalue = [1, 0, 0]\nclass = A", fillcolor="#e58139"] ;
390 -> 392 ;
393 [label="gini = 0.0\nsamples = 2\nvalue = [1, 1, 0]\nclass = A", fillcolor="#ffffff"] ;
389 -> 393 ;
394 [label="B365H <= 2.89\ngini = 0.49\nsamples = 34\nvalue = [6, 5, 23]\nclass = H", fillcolor="#b287ef"] ;
388 -> 394 ;
395 [label="WHD <= 3.225\ngini = 0.611\nsamples = 6\nvalue = [3, 1, 2]\nclass = A", fillcolor="#f8e0ce"] ;
394 -> 395 ;
396 [label="gini = 0.0\nsamples = 3\nvalue = [3, 0, 0]\nclass = A", fillcolor="#e58139"] ;
395 -> 396 ;
397 [label="VCD <= 3.35\ngini = 0.444\nsamples = 3\nvalue = [0, 1, 2]\nclass = H", fillcolor="#c09cf2"] ;
395 -> 397 ;
398 [label="gini = 0.0\nsamples = 1\nvalue = [0, 0, 1]\nclass = H", fillcolor="#8139e5"] ;
397 -> 398 ;
399 [label="LBA <= 2.39\ngini = 0.5\nsamples = 2\nvalue = [0, 1, 1]\nclass = D", fillcolor="#ffffff"] ;
397 -> 399 ;
400 [label="gini = 0.0\nsamples = 1\nvalue = [0, 0, 1]\nclass = H", fillcolor="#8139e5"] ;
399 -> 400 ;
401 [label="gini = 0.0\nsamples = 1\nvalue = [0, 1, 0]\nclass = D", fillcolor="#39e581"] ;
399 -> 401 ;
402 [label="LBH <= 2.725\ngini = 0.406\nsamples = 28\nvalue = [3, 4, 21]\nclass = H", fillcolor="#a673ed"] ;
394 -> 402 ;
403 [label="gini = 0.0\nsamples = 1\nvalue = [1, 0, 0]\nclass = A", fillcolor="#e58139"] ;
402 -> 403 ;
404 [label="LBD <= 3.05\ngini = 0.368\nsamples = 27\nvalue = [2, 4, 21]\nclass = H", fillcolor="#a26dec"] ;
402 -> 404 ;
405 [label="gini = 0.0\nsamples = 1\nvalue = [0, 1, 0]\nclass = D", fillcolor="#39e581"] ;
404 -> 405 ;
406 [label="LBH <= 2.875\ngini = 0.328\nsamples = 26\nvalue = [2, 3, 21]\nclass = H", fillcolor="#9c64eb"] ;
404 -> 406 ;
407 [label="VCH <= 3.15\ngini = 0.5\nsamples = 4\nvalue = [0, 2, 2]\nclass = D", fillcolor="#ffffff"] ;
406 -> 407 ;
408 [label="B365H <= 2.95\ngini = 0.5\nsamples = 2\nvalue = [0, 0, 2]\nclass = H", fillcolor="#8139e5"] ;
407 -> 408 ;
409 [label="gini = 0.0\nsamples = 1\nvalue = [0, 0, 1]\nclass = H", fillcolor="#8139e5"] ;
408 -> 409 ;
410 [label="gini = 0.0\nsamples = 1\nvalue = [0, 0, 1]\nclass = H", fillcolor="#8139e5"] ;
408 -> 410 ;
411 [label="BWH <= 3.175\ngini = 0.5\nsamples = 2\nvalue = [0, 2, 0]\nclass = D", fillcolor="#39e581"] ;
407 -> 411 ;
412 [label="gini = -4.0\nsamples = 1\nvalue = [0, 1, 0]\nclass = D", fillcolor="#39e581"] ;
411 -> 412 ;
413 [label="gini = 0.0\nsamples = 1\nvalue = [0, 1, 0]\nclass = D", fillcolor="#39e581"] ;
411 -> 413 ;
414 [label="WHH <= 3.225\ngini = 0.244\nsamples = 22\nvalue = [2, 1, 19]\nclass = H", fillcolor="#9457e9"] ;
406 -> 414 ;
415 [label="gini = 0.177\nsamples = 20\nvalue = [1, 1, 18]\nclass = H", fillcolor="#8e4ee8"] ;
414 -> 415 ;
416 [label="gini = 0.0\nsamples = 2\nvalue = [1, 0, 1]\nclass = A", fillcolor="#ffffff"] ;
414 -> 416 ;
417 [label="WHD <= 3.45\ngini = 0.666\nsamples = 317\nvalue = [106, 109, 102]\nclass = D", fillcolor="#fcfffd"] ;
387 -> 417 ;
418 [label="WHA <= 2.425\ngini = 0.667\nsamples = 309\nvalue = [105, 102, 102]\nclass = A", fillcolor="#fffdfc"] ;
417 -> 418 ;
419 [label="LBA <= 2.375\ngini = 0.615\nsamples = 46\nvalue = [21, 18, 7]\nclass = A", fillcolor="#fcf2ea"] ;
418 -> 419 ;
420 [label="WHD <= 3.05\ngini = 0.531\nsamples = 16\nvalue = [4, 10, 2]\nclass = D", fillcolor="#9cf2c0"] ;
419 -> 420 ;
421 [label="gini = 0.0\nsamples = 2\nvalue = [2, 0, 0]\nclass = A", fillcolor="#e58139"] ;
420 -> 421 ;
422 [label="IWD <= 3.35\ngini = 0.449\nsamples = 14\nvalue = [2, 10, 2]\nclass = D", fillcolor="#7beeab"] ;
420 -> 422 ;
423 [label="B365A <= 2.39\ngini = 0.449\nsamples = 13\nvalue = [2, 10, 1]\nclass = D", fillcolor="#6feca3"] ;
422 -> 423 ;
424 [label="WHD <= 3.2\ngini = 0.346\nsamples = 8\nvalue = [1, 7, 0]\nclass = D", fillcolor="#55e993"] ;
423 -> 424 ;
425 [label="gini = 0.0\nsamples = 4\nvalue = [0, 4, 0]\nclass = D", fillcolor="#39e581"] ;
424 -> 425 ;
426 [label="LBD <= 3.275\ngini = 0.375\nsamples = 4\nvalue = [1, 3, 0]\nclass = D", fillcolor="#7beeab"] ;
424 -> 426 ;
427 [label="gini = -1.5\nsamples = 2\nvalue = [0, 2, 0]\nclass = D", fillcolor="#39e581"] ;
426 -> 427 ;
428 [label="gini = 0.0\nsamples = 2\nvalue = [1, 1, 0]\nclass = A", fillcolor="#ffffff"] ;
426 -> 428 ;
429 [label="LBH <= 2.775\ngini = 0.375\nsamples = 5\nvalue = [1, 3, 1]\nclass = D", fillcolor="#9cf2c0"] ;
423 -> 429 ;
430 [label="IWA <= 2.45\ngini = 0.375\nsamples = 3\nvalue = [0, 2, 1]\nclass = D", fillcolor="#9cf2c0"] ;
429 -> 430 ;
431 [label="B365D <= 3.325\ngini = 0.444\nsamples = 2\nvalue = [0, 1, 1]\nclass = D", fillcolor="#ffffff"] ;
430 -> 431 ;
432 [label="gini = -2.0\nsamples = 1\nvalue = [0, 1, 0]\nclass = D", fillcolor="#39e581"] ;
431 -> 432 ;
433 [label="gini = 0.0\nsamples = 1\nvalue = [0, 0, 1]\nclass = H", fillcolor="#8139e5"] ;
431 -> 433 ;
434 [label="gini = nan\nsamples = 1\nvalue = [0, 1, 0]\nclass = D", fillcolor="#39e581"] ;
430 -> 434 ;
435 [label="gini = 0.0\nsamples = 2\nvalue = [1, 1, 0]\nclass = A", fillcolor="#ffffff"] ;
429 -> 435 ;
436 [label="gini = nan\nsamples = 1\nvalue = [0, 0, 1]\nclass = H", fillcolor="#8139e5"] ;
422 -> 436 ;
437 [label="IWD <= 3.15\ngini = 0.58\nsamples = 30\nvalue = [17, 8, 5]\nclass = A", fillcolor="#f4cbae"] ;
419 -> 437 ;
438 [label="VCA <= 2.55\ngini = 0.571\nsamples = 7\nvalue = [1, 4, 2]\nclass = D", fillcolor="#b0f5cd"] ;
437 -> 438 ;
439 [label="B365A <= 2.56\ngini = 0.5\nsamples = 5\nvalue = [0, 4, 1]\nclass = D", fillcolor="#6aeca0"] ;
438 -> 439 ;
440 [label="WHH <= 2.685\ngini = 0.375\nsamples = 3\nvalue = [0, 3, 0]\nclass = D", fillcolor="#39e581"] ;
439 -> 440 ;
441 [label="gini = 0.0\nsamples = 2\nvalue = [0, 2, 0]\nclass = D", fillcolor="#39e581"] ;
440 -> 441 ;
442 [label="gini = nan\nsamples = 1\nvalue = [0, 1, 0]\nclass = D", fillcolor="#39e581"] ;
440 -> 442 ;
443 [label="gini = 0.0\nsamples = 2\nvalue = [0, 1, 1]\nclass = D", fillcolor="#ffffff"] ;
439 -> 443 ;
444 [label="gini = 0.0\nsamples = 2\nvalue = [1, 0, 1]\nclass = A", fillcolor="#ffffff"] ;
438 -> 444 ;
445 [label="IWH <= 2.725\ngini = 0.469\nsamples = 23\nvalue = [16, 4, 3]\nclass = A", fillcolor="#efaf82"] ;
437 -> 445 ;
446 [label="WHH <= 2.61\ngini = 0.364\nsamples = 17\nvalue = [14, 1, 2]\nclass = A", fillcolor="#ea9a61"] ;
445 -> 446 ;
447 [label="gini = 0.0\nsamples = 1\nvalue = [0, 1, 0]\nclass = D", fillcolor="#39e581"] ;
446 -> 447 ;
448 [label="BWA <= 2.375\ngini = 0.219\nsamples = 16\nvalue = [14, 0, 2]\nclass = A", fillcolor="#e99355"] ;
446 -> 448 ;
449 [label="WHD <= 3.15\ngini = 0.48\nsamples = 5\nvalue = [3, 0, 2]\nclass = A", fillcolor="#f6d5bd"] ;
448 -> 449 ;
450 [label="gini = 0.0\nsamples = 2\nvalue = [2, 0, 0]\nclass = A", fillcolor="#e58139"] ;
449 -> 450 ;
451 [label="BWA <= 2.325\ngini = 0.444\nsamples = 3\nvalue = [1, 0, 2]\nclass = H", fillcolor="#c09cf2"] ;
449 -> 451 ;
452 [label="LBH <= 2.8\ngini = 0.444\nsamples = 2\nvalue = [1, 0, 1]\nclass = A", fillcolor="#ffffff"] ;
451 -> 452 ;
453 [label="gini = 0.0\nsamples = 1\nvalue = [1, 0, 0]\nclass = A", fillcolor="#e58139"] ;
452 -> 453 ;
454 [label="gini = 0.0\nsamples = 1\nvalue = [0, 0, 1]\nclass = H", fillcolor="#8139e5"] ;
452 -> 454 ;
455 [label="gini = nan\nsamples = 1\nvalue = [0, 0, 1]\nclass = H", fillcolor="#8139e5"] ;
451 -> 455 ;
456 [label="gini = 0.0\nsamples = 11\nvalue = [11, 0, 0]\nclass = A", fillcolor="#e58139"] ;
448 -> 456 ;
457 [label="IWH <= 2.775\ngini = 0.48\nsamples = 6\nvalue = [2, 3, 1]\nclass = D", fillcolor="#cef8e0"] ;
445 -> 457 ;
458 [label="WHH <= 3.15\ngini = 0.444\nsamples = 3\nvalue = [1, 2, 0]\nclass = D", fillcolor="#9cf2c0"] ;
457 -> 458 ;
459 [label="VCA <= 2.425\ngini = 0.444\nsamples = 2\nvalue = [0, 2, 0]\nclass = D", fillcolor="#39e581"] ;
458 -> 459 ;
460 [label="gini = -4.0\nsamples = 1\nvalue = [0, 1, 0]\nclass = D", fillcolor="#39e581"] ;
459 -> 460 ;
461 [label="gini = 0.0\nsamples = 1\nvalue = [0, 1, 0]\nclass = D", fillcolor="#39e581"] ;
459 -> 461 ;
462 [label="gini = nan\nsamples = 1\nvalue = [1, 0, 0]\nclass = A", fillcolor="#e58139"] ;
458 -> 462 ;
463 [label="B365D <= 3.225\ngini = 0.444\nsamples = 3\nvalue = [1, 1, 1]\nclass = A", fillcolor="#ffffff"] ;
457 -> 463 ;
464 [label="BWA <= 2.475\ngini = 0.667\nsamples = 2\nvalue = [0, 1, 1]\nclass = D", fillcolor="#ffffff"] ;
463 -> 464 ;
465 [label="gini = -2.0\nsamples = 1\nvalue = [0, 0, 1]\nclass = H", fillcolor="#8139e5"] ;
464 -> 465 ;
466 [label="gini = 0.0\nsamples = 1\nvalue = [0, 1, 0]\nclass = D", fillcolor="#39e581"] ;
464 -> 466 ;
467 [label="gini = nan\nsamples = 1\nvalue = [1, 0, 0]\nclass = A", fillcolor="#e58139"] ;
463 -> 467 ;
468 [label="B365A <= 3.05\ngini = 0.666\nsamples = 263\nvalue = [84, 84, 95]\nclass = H", fillcolor="#f7f3fd"] ;
418 -> 468 ;
469 [label="VCA <= 2.878\ngini = 0.665\nsamples = 250\nvalue = [76, 82, 92]\nclass = H", fillcolor="#f7f3fd"] ;
468 -> 469 ;
470 [label="B365A <= 2.525\ngini = 0.661\nsamples = 175\nvalue = [61, 48, 66]\nclass = H", fillcolor="#f9f6fe"] ;
469 -> 470 ;
471 [label="BWD <= 3.275\ngini = 0.615\nsamples = 45\nvalue = [7, 17, 21]\nclass = H", fillcolor="#ede3fb"] ;
470 -> 471 ;
472 [label="WHD <= 3.275\ngini = 0.579\nsamples = 27\nvalue = [5, 6, 16]\nclass = H", fillcolor="#c3a1f3"] ;
471 -> 472 ;
473 [label="LBA <= 2.39\ngini = 0.499\nsamples = 22\nvalue = [2, 6, 14]\nclass = H", fillcolor="#c09cf2"] ;
472 -> 473 ;
474 [label="gini = 0.0\nsamples = 3\nvalue = [0, 3, 0]\nclass = D", fillcolor="#39e581"] ;
473 -> 474 ;
475 [label="LBH <= 2.95\ngini = 0.421\nsamples = 19\nvalue = [2, 3, 14]\nclass = H", fillcolor="#a877ed"] ;
473 -> 475 ;
476 [label="BWA <= 2.575\ngini = 0.32\nsamples = 15\nvalue = [0, 2, 13]\nclass = H", fillcolor="#9457e9"] ;
475 -> 476 ;
477 [label="VCH <= 3.11\ngini = 0.245\nsamples = 13\nvalue = [0, 1, 12]\nclass = H", fillcolor="#8c49e7"] ;
476 -> 477 ;
478 [label="BWH <= 2.875\ngini = 0.142\nsamples = 12\nvalue = [0, 1, 11]\nclass = H", fillcolor="#8c4be7"] ;
477 -> 478 ;
479 [label="gini = 0.0\nsamples = 9\nvalue = [0, 0, 9]\nclass = H", fillcolor="#8139e5"] ;
478 -> 479 ;
480 [label="WHH <= 2.95\ngini = 0.5\nsamples = 3\nvalue = [0, 1, 2]\nclass = H", fillcolor="#c09cf2"] ;
478 -> 480 ;
481 [label="IWD <= 3.25\ngini = 0.444\nsamples = 2\nvalue = [0, 1, 1]\nclass = D", fillcolor="#ffffff"] ;
480 -> 481 ;
482 [label="gini = -2.0\nsamples = 1\nvalue = [0, 1, 0]\nclass = D", fillcolor="#39e581"] ;
481 -> 482 ;
483 [label="gini = 0.0\nsamples = 1\nvalue = [0, 0, 1]\nclass = H", fillcolor="#8139e5"] ;
481 -> 483 ;
484 [label="gini = nan\nsamples = 1\nvalue = [0, 0, 1]\nclass = H", fillcolor="#8139e5"] ;
480 -> 484 ;
485 [label="gini = nan\nsamples = 1\nvalue = [0, 0, 1]\nclass = H", fillcolor="#8139e5"] ;
477 -> 485 ;
486 [label="gini = 0.0\nsamples = 2\nvalue = [0, 1, 1]\nclass = D", fillcolor="#ffffff"] ;
476 -> 486 ;
487 [label="IWA <= 2.425\ngini = 0.667\nsamples = 4\nvalue = [2, 1, 1]\nclass = A", fillcolor="#f6d5bd"] ;
475 -> 487 ;
488 [label="LBH <= 3.05\ngini = 0.5\nsamples = 2\nvalue = [0, 1, 1]\nclass = D", fillcolor="#ffffff"] ;
487 -> 488 ;
489 [label="gini = -2.0\nsamples = 1\nvalue = [0, 0, 1]\nclass = H", fillcolor="#8139e5"] ;
488 -> 489 ;
490 [label="gini = 0.0\nsamples = 1\nvalue = [0, 1, 0]\nclass = D", fillcolor="#39e581"] ;
488 -> 490 ;
491 [label="gini = 0.0\nsamples = 2\nvalue = [2, 0, 0]\nclass = A", fillcolor="#e58139"] ;
487 -> 491 ;
492 [label="WHH <= 2.66\ngini = 0.375\nsamples = 5\nvalue = [3, 0, 2]\nclass = A", fillcolor="#f6d5bd"] ;
472 -> 492 ;
493 [label="gini = 0.0\nsamples = 2\nvalue = [0, 0, 2]\nclass = H", fillcolor="#8139e5"] ;
492 -> 493 ;
494 [label="gini = 0.0\nsamples = 3\nvalue = [3, 0, 0]\nclass = A", fillcolor="#e58139"] ;
492 -> 494 ;
495 [label="IWH <= 2.725\ngini = 0.554\nsamples = 18\nvalue = [2, 11, 5]\nclass = D", fillcolor="#a4f3c5"] ;
471 -> 495 ;
496 [label="LBD <= 3.35\ngini = 0.602\nsamples = 13\nvalue = [2, 6, 5]\nclass = D", fillcolor="#e6fcef"] ;
495 -> 496 ;
497 [label="B365H <= 2.95\ngini = 0.611\nsamples = 11\nvalue = [1, 6, 4]\nclass = D", fillcolor="#c6f8db"] ;
496 -> 497 ;
498 [label="BWA <= 2.4\ngini = 0.494\nsamples = 8\nvalue = [0, 4, 4]\nclass = D", fillcolor="#ffffff"] ;
497 -> 498 ;
499 [label="IWA <= 2.475\ngini = 0.125\nsamples = 4\nvalue = [0, 1, 3]\nclass = H", fillcolor="#ab7bee"] ;
498 -> 499 ;
500 [label="gini = -0.5\nsamples = 2\nvalue = [0, 0, 2]\nclass = H", fillcolor="#8139e5"] ;
499 -> 500 ;
501 [label="IWD <= 3.25\ngini = 0.5\nsamples = 2\nvalue = [0, 1, 1]\nclass = D", fillcolor="#ffffff"] ;
499 -> 501 ;
502 [label="gini = -2.0\nsamples = 1\nvalue = [0, 0, 1]\nclass = H", fillcolor="#8139e5"] ;
501 -> 502 ;
503 [label="gini = 0.0\nsamples = 1\nvalue = [0, 1, 0]\nclass = D", fillcolor="#39e581"] ;
501 -> 503 ;
504 [label="IWD <= 3.25\ngini = 0.625\nsamples = 4\nvalue = [0, 3, 1]\nclass = D", fillcolor="#7beeab"] ;
498 -> 504 ;
505 [label="gini = -0.5\nsamples = 2\nvalue = [0, 2, 0]\nclass = D", fillcolor="#39e581"] ;
504 -> 505 ;
506 [label="IWH <= 2.575\ngini = 0.5\nsamples = 2\nvalue = [0, 1, 1]\nclass = D", fillcolor="#ffffff"] ;
504 -> 506 ;
507 [label="gini = -2.0\nsamples = 1\nvalue = [0, 0, 1]\nclass = H", fillcolor="#8139e5"] ;
506 -> 507 ;
508 [label="gini = 0.0\nsamples = 1\nvalue = [0, 1, 0]\nclass = D", fillcolor="#39e581"] ;
506 -> 508 ;
509 [label="LBA <= 2.45\ngini = 0.5\nsamples = 3\nvalue = [1, 2, 0]\nclass = D", fillcolor="#9cf2c0"] ;
497 -> 509 ;
510 [label="LBH <= 2.94\ngini = 0.444\nsamples = 2\nvalue = [0, 2, 0]\nclass = D", fillcolor="#39e581"] ;
509 -> 510 ;
511 [label="gini = -4.0\nsamples = 1\nvalue = [0, 1, 0]\nclass = D", fillcolor="#39e581"] ;
510 -> 511 ;
512 [label="gini = 0.0\nsamples = 1\nvalue = [0, 1, 0]\nclass = D", fillcolor="#39e581"] ;
510 -> 512 ;
513 [label="gini = nan\nsamples = 1\nvalue = [1, 0, 0]\nclass = A", fillcolor="#e58139"] ;
509 -> 513 ;
514 [label="gini = 0.0\nsamples = 2\nvalue = [1, 0, 1]\nclass = A", fillcolor="#ffffff"] ;
496 -> 514 ;
515 [label="gini = 0.0\nsamples = 5\nvalue = [0, 5, 0]\nclass = D", fillcolor="#39e581"] ;
495 -> 515 ;
516 [label="VCH <= 2.89\ngini = 0.651\nsamples = 130\nvalue = [54, 31, 45]\nclass = A", fillcolor="#fcf2ea"] ;
470 -> 516 ;
517 [label="WHA <= 2.85\ngini = 0.638\nsamples = 119\nvalue = [51, 24, 44]\nclass = A", fillcolor="#fdf3ed"] ;
516 -> 517 ;
518 [label="B365H <= 2.775\ngini = 0.643\nsamples = 114\nvalue = [46, 24, 44]\nclass = A", fillcolor="#fefbf9"] ;
517 -> 518 ;
519 [label="BWA <= 2.525\ngini = 0.645\nsamples = 106\nvalue = [40, 23, 43]\nclass = H", fillcolor="#f9f6fe"] ;
518 -> 519 ;
520 [label="LBH <= 2.39\ngini = 0.512\nsamples = 17\nvalue = [11, 2, 4]\nclass = A", fillcolor="#f1bb94"] ;
519 -> 520 ;
521 [label="gini = 0.0\nsamples = 5\nvalue = [5, 0, 0]\nclass = A", fillcolor="#e58139"] ;
520 -> 521 ;
522 [label="VCH <= 2.55\ngini = 0.611\nsamples = 12\nvalue = [6, 2, 4]\nclass = A", fillcolor="#f8e0ce"] ;
520 -> 522 ;
523 [label="LBA <= 2.6\ngini = 0.375\nsamples = 4\nvalue = [0, 1, 3]\nclass = H", fillcolor="#ab7bee"] ;
522 -> 523 ;
524 [label="IWH <= 2.625\ngini = 0.375\nsamples = 3\nvalue = [0, 1, 2]\nclass = H", fillcolor="#c09cf2"] ;
523 -> 524 ;
525 [label="B365A <= 2.7\ngini = 0.444\nsamples = 2\nvalue = [0, 1, 1]\nclass = D", fillcolor="#ffffff"] ;
524 -> 525 ;
526 [label="gini = -2.0\nsamples = 1\nvalue = [0, 0, 1]\nclass = H", fillcolor="#8139e5"] ;
525 -> 526 ;
527 [label="gini = 0.0\nsamples = 1\nvalue = [0, 1, 0]\nclass = D", fillcolor="#39e581"] ;
525 -> 527 ;
528 [label="gini = nan\nsamples = 1\nvalue = [0, 0, 1]\nclass = H", fillcolor="#8139e5"] ;
524 -> 528 ;
529 [label="gini = nan\nsamples = 1\nvalue = [0, 0, 1]\nclass = H", fillcolor="#8139e5"] ;
523 -> 529 ;
530 [label="B365A <= 2.575\ngini = 0.406\nsamples = 8\nvalue = [6, 1, 1]\nclass = A", fillcolor="#eca572"] ;
522 -> 530 ;
531 [label="gini = 0.0\nsamples = 1\nvalue = [0, 1, 0]\nclass = D", fillcolor="#39e581"] ;
530 -> 531 ;
532 [label="IWA <= 2.45\ngini = 0.245\nsamples = 7\nvalue = [6, 0, 1]\nclass = A", fillcolor="#e9965a"] ;
530 -> 532 ;
533 [label="gini = 0.0\nsamples = 1\nvalue = [0, 0, 1]\nclass = H", fillcolor="#8139e5"] ;
532 -> 533 ;
534 [label="gini = 0.0\nsamples = 6\nvalue = [6, 0, 0]\nclass = A", fillcolor="#e58139"] ;
532 -> 534 ;
535 [label="WHA <= 2.775\ngini = 0.646\nsamples = 89\nvalue = [29, 21, 39]\nclass = H", fillcolor="#eadefb"] ;
519 -> 535 ;
536 [label="IWH <= 2.35\ngini = 0.646\nsamples = 77\nvalue = [22, 20, 35]\nclass = H", fillcolor="#e1d0f9"] ;
535 -> 536 ;
537 [label="IWA <= 2.95\ngini = 0.444\nsamples = 6\nvalue = [0, 4, 2]\nclass = D", fillcolor="#9cf2c0"] ;
536 -> 537 ;
538 [label="VCA <= 2.675\ngini = 0.48\nsamples = 4\nvalue = [0, 3, 1]\nclass = D", fillcolor="#7beeab"] ;
537 -> 538 ;
539 [label="gini = -1.5\nsamples = 2\nvalue = [0, 2, 0]\nclass = D", fillcolor="#39e581"] ;
538 -> 539 ;
540 [label="B365H <= 2.56\ngini = 0.5\nsamples = 2\nvalue = [0, 1, 1]\nclass = D", fillcolor="#ffffff"] ;
538 -> 540 ;
541 [label="gini = -2.0\nsamples = 1\nvalue = [0, 0, 1]\nclass = H", fillcolor="#8139e5"] ;
540 -> 541 ;
542 [label="gini = 0.0\nsamples = 1\nvalue = [0, 1, 0]\nclass = D", fillcolor="#39e581"] ;
540 -> 542 ;
543 [label="gini = 0.0\nsamples = 2\nvalue = [0, 1, 1]\nclass = D", fillcolor="#ffffff"] ;
537 -> 543 ;
544 [label="WHH <= 2.39\ngini = 0.637\nsamples = 71\nvalue = [22, 16, 33]\nclass = H", fillcolor="#e3d3f9"] ;
536 -> 544 ;
545 [label="gini = 0.0\nsamples = 3\nvalue = [3, 0, 0]\nclass = A", fillcolor="#e58139"] ;
544 -> 545 ;
546 [label="VCD <= 3.11\ngini = 0.631\nsamples = 68\nvalue = [19, 16, 33]\nclass = H", fillcolor="#dbc6f8"] ;
544 -> 546 ;
547 [label="gini = 0.0\nsamples = 5\nvalue = [0, 0, 5]\nclass = H", fillcolor="#8139e5"] ;
546 -> 547 ;
548 [label="LBA <= 2.725\ngini = 0.647\nsamples = 63\nvalue = [19, 16, 28]\nclass = H", fillcolor="#e5d6fa"] ;
546 -> 548 ;
549 [label="VCA <= 2.625\ngini = 0.632\nsamples = 51\nvalue = [15, 11, 25]\nclass = H", fillcolor="#dcc8f8"] ;
548 -> 549 ;
550 [label="IWA <= 2.675\ngini = 0.642\nsamples = 9\nvalue = [3, 4, 2]\nclass = D", fillcolor="#defbea"] ;
549 -> 550 ;
551 [label="LBH <= 2.675\ngini = 0.653\nsamples = 6\nvalue = [1, 3, 2]\nclass = D", fillcolor="#cef8e0"] ;
550 -> 551 ;
552 [label="LBA <= 2.56\ngini = 0.48\nsamples = 4\nvalue = [0, 2, 2]\nclass = D", fillcolor="#ffffff"] ;
551 -> 552 ;
553 [label="WHH <= 2.525\ngini = 0.5\nsamples = 3\nvalue = [0, 1, 2]\nclass = H", fillcolor="#c09cf2"] ;
552 -> 553 ;
554 [label="WHA <= 2.55\ngini = 0.444\nsamples = 2\nvalue = [0, 0, 2]\nclass = H", fillcolor="#8139e5"] ;
553 -> 554 ;
555 [label="gini = -4.0\nsamples = 1\nvalue = [0, 0, 1]\nclass = H", fillcolor="#8139e5"] ;
554 -> 555 ;
556 [label="gini = 0.0\nsamples = 1\nvalue = [0, 0, 1]\nclass = H", fillcolor="#8139e5"] ;
554 -> 556 ;
557 [label="gini = nan\nsamples = 1\nvalue = [0, 1, 0]\nclass = D", fillcolor="#39e581"] ;
553 -> 557 ;
558 [label="gini = nan\nsamples = 1\nvalue = [0, 1, 0]\nclass = D", fillcolor="#39e581"] ;
552 -> 558 ;
559 [label="gini = 0.0\nsamples = 2\nvalue = [1, 1, 0]\nclass = A", fillcolor="#ffffff"] ;
551 -> 559 ;
560 [label="BWA <= 2.575\ngini = 0.5\nsamples = 3\nvalue = [2, 1, 0]\nclass = A", fillcolor="#f2c09c"] ;
550 -> 560 ;
561 [label="gini = 0.0\nsamples = 1\nvalue = [0, 1, 0]\nclass = D", fillcolor="#39e581"] ;
560 -> 561 ;
562 [label="gini = 0.0\nsamples = 2\nvalue = [2, 0, 0]\nclass = A", fillcolor="#e58139"] ;
560 -> 562 ;
563 [label="IWH <= 2.45\ngini = 0.591\nsamples = 42\nvalue = [12, 7, 23]\nclass = H", fillcolor="#d1b6f5"] ;
549 -> 563 ;
564 [label="gini = 0.0\nsamples = 5\nvalue = [0, 0, 5]\nclass = H", fillcolor="#8139e5"] ;
563 -> 564 ;
565 [label="BWH <= 2.575\ngini = 0.622\nsamples = 37\nvalue = [12, 7, 18]\nclass = H", fillcolor="#e1cff9"] ;
563 -> 565 ;
566 [label="B365A <= 2.725\ngini = 0.473\nsamples = 13\nvalue = [2, 2, 9]\nclass = H", fillcolor="#af81ee"] ;
565 -> 566 ;
567 [label="gini = 0.0\nsamples = 7\nvalue = [0, 0, 7]\nclass = H", fillcolor="#8139e5"] ;
566 -> 567 ;
568 [label="B365D <= 3.225\ngini = 0.64\nsamples = 6\nvalue = [2, 2, 2]\nclass = A", fillcolor="#ffffff"] ;
566 -> 568 ;
569 [label="B365H <= 2.55\ngini = 0.444\nsamples = 3\nvalue = [0, 1, 2]\nclass = H", fillcolor="#c09cf2"] ;
568 -> 569 ;
570 [label="WHA <= 2.575\ngini = 0.444\nsamples = 2\nvalue = [0, 0, 2]\nclass = H", fillcolor="#8139e5"] ;
569 -> 570 ;
571 [label="gini = -4.0\nsamples = 1\nvalue = [0, 0, 1]\nclass = H", fillcolor="#8139e5"] ;
570 -> 571 ;
572 [label="gini = 0.0\nsamples = 1\nvalue = [0, 0, 1]\nclass = H", fillcolor="#8139e5"] ;
570 -> 572 ;
573 [label="gini = nan\nsamples = 1\nvalue = [0, 1, 0]\nclass = D", fillcolor="#39e581"] ;
569 -> 573 ;
574 [label="IWH <= 2.525\ngini = 0.444\nsamples = 3\nvalue = [2, 1, 0]\nclass = A", fillcolor="#f2c09c"] ;
568 -> 574 ;
575 [label="gini = 0.0\nsamples = 1\nvalue = [0, 1, 0]\nclass = D", fillcolor="#39e581"] ;
574 -> 575 ;
576 [label="gini = 0.0\nsamples = 2\nvalue = [2, 0, 0]\nclass = A", fillcolor="#e58139"] ;
574 -> 576 ;
577 [label="BWH <= 2.675\ngini = 0.642\nsamples = 24\nvalue = [10, 5, 9]\nclass = A", fillcolor="#fdf7f2"] ;
565 -> 577 ;
578 [label="BWA <= 2.675\ngini = 0.562\nsamples = 11\nvalue = [6, 4, 1]\nclass = A", fillcolor="#f8dbc6"] ;
577 -> 578 ;
579 [label="VCH <= 2.665\ngini = 0.594\nsamples = 7\nvalue = [3, 3, 1]\nclass = A", fillcolor="#ffffff"] ;
578 -> 579 ;
580 [label="LBD <= 3.25\ngini = 0.611\nsamples = 5\nvalue = [1, 3, 1]\nclass = D", fillcolor="#9cf2c0"] ;
579 -> 580 ;
581 [label="B365H <= 2.565\ngini = 0.625\nsamples = 3\nvalue = [1, 2, 0]\nclass = D", fillcolor="#9cf2c0"] ;
580 -> 581 ;
582 [label="VCA <= 2.725\ngini = 0.444\nsamples = 2\nvalue = [1, 1, 0]\nclass = A", fillcolor="#ffffff"] ;
581 -> 582 ;
583 [label="gini = 0.0\nsamples = 1\nvalue = [0, 1, 0]\nclass = D", fillcolor="#39e581"] ;
582 -> 583 ;
584 [label="gini = 0.0\nsamples = 1\nvalue = [1, 0, 0]\nclass = A", fillcolor="#e58139"] ;
582 -> 584 ;
585 [label="gini = nan\nsamples = 1\nvalue = [0, 1, 0]\nclass = D", fillcolor="#39e581"] ;
581 -> 585 ;
586 [label="gini = 0.0\nsamples = 2\nvalue = [0, 1, 1]\nclass = D", fillcolor="#ffffff"] ;
580 -> 586 ;
587 [label="gini = 0.0\nsamples = 2\nvalue = [2, 0, 0]\nclass = A", fillcolor="#e58139"] ;
579 -> 587 ;
588 [label="VCA <= 2.725\ngini = 0.444\nsamples = 4\nvalue = [3, 1, 0]\nclass = A", fillcolor="#eeab7b"] ;
578 -> 588 ;
589 [label="gini = 0.0\nsamples = 1\nvalue = [0, 1, 0]\nclass = D", fillcolor="#39e581"] ;
588 -> 589 ;
590 [label="gini = 0.0\nsamples = 3\nvalue = [3, 0, 0]\nclass = A", fillcolor="#e58139"] ;
588 -> 590 ;
591 [label="IWA <= 2.625\ngini = 0.521\nsamples = 13\nvalue = [4, 1, 8]\nclass = H", fillcolor="#c7a7f3"] ;
577 -> 591 ;
592 [label="B365A <= 2.725\ngini = 0.542\nsamples = 11\nvalue = [3, 1, 7]\nclass = H", fillcolor="#c09cf2"] ;
591 -> 592 ;
593 [label="gini = 0.46\nsamples = 9\nvalue = [2, 1, 6]\nclass = H", fillcolor="#b78ef0"] ;
592 -> 593 ;
594 [label="gini = 0.0\nsamples = 2\nvalue = [1, 0, 1]\nclass = A", fillcolor="#ffffff"] ;
592 -> 594 ;
595 [label="gini = 0.0\nsamples = 2\nvalue = [1, 0, 1]\nclass = A", fillcolor="#ffffff"] ;
591 -> 595 ;
596 [label="BWD <= 3.225\ngini = 0.661\nsamples = 12\nvalue = [4, 5, 3]\nclass = D", fillcolor="#e6fcef"] ;
548 -> 596 ;
597 [label="BWH <= 2.525\ngini = 0.375\nsamples = 4\nvalue = [3, 0, 1]\nclass = A", fillcolor="#eeab7b"] ;
596 -> 597 ;
598 [label="gini = 0.0\nsamples = 1\nvalue = [0, 0, 1]\nclass = H", fillcolor="#8139e5"] ;
597 -> 598 ;
599 [label="gini = 0.0\nsamples = 3\nvalue = [3, 0, 0]\nclass = A", fillcolor="#e58139"] ;
597 -> 599 ;
600 [label="IWA <= 2.575\ngini = 0.531\nsamples = 8\nvalue = [1, 5, 2]\nclass = D", fillcolor="#9cf2c0"] ;
596 -> 600 ;
601 [label="gini = 0.0\nsamples = 2\nvalue = [0, 0, 2]\nclass = H", fillcolor="#8139e5"] ;
600 -> 601 ;
602 [label="BWH <= 2.475\ngini = 0.278\nsamples = 6\nvalue = [1, 5, 0]\nclass = D", fillcolor="#61ea9a"] ;
600 -> 602 ;
603 [label="gini = 0.0\nsamples = 1\nvalue = [1, 0, 0]\nclass = A", fillcolor="#e58139"] ;
602 -> 603 ;
604 [label="gini = 0.0\nsamples = 5\nvalue = [0, 5, 0]\nclass = D", fillcolor="#39e581"] ;
602 -> 604 ;
605 [label="LBH <= 2.61\ngini = 0.562\nsamples = 12\nvalue = [7, 1, 4]\nclass = A", fillcolor="#f5d0b5"] ;
535 -> 605 ;
606 [label="IWA <= 2.525\ngini = 0.406\nsamples = 7\nvalue = [6, 1, 0]\nclass = A", fillcolor="#e9965a"] ;
605 -> 606 ;
607 [label="gini = 0.0\nsamples = 1\nvalue = [0, 1, 0]\nclass = D", fillcolor="#39e581"] ;
606 -> 607 ;
608 [label="gini = 0.0\nsamples = 6\nvalue = [6, 0, 0]\nclass = A", fillcolor="#e58139"] ;
606 -> 608 ;
609 [label="WHD <= 3.15\ngini = 0.375\nsamples = 5\nvalue = [1, 0, 4]\nclass = H", fillcolor="#a06aec"] ;
605 -> 609 ;
610 [label="LBD <= 3.2\ngini = 0.375\nsamples = 3\nvalue = [0, 0, 3]\nclass = H", fillcolor="#8139e5"] ;
609 -> 610 ;
611 [label="gini = 0.0\nsamples = 2\nvalue = [0, 0, 2]\nclass = H", fillcolor="#8139e5"] ;
610 -> 611 ;
612 [label="gini = nan\nsamples = 1\nvalue = [0, 0, 1]\nclass = H", fillcolor="#8139e5"] ;
610 -> 612 ;
613 [label="gini = 0.0\nsamples = 2\nvalue = [1, 0, 1]\nclass = A", fillcolor="#ffffff"] ;
609 -> 613 ;
614 [label="IWD <= 3.15\ngini = 0.449\nsamples = 8\nvalue = [6, 1, 1]\nclass = A", fillcolor="#eca572"] ;
518 -> 614 ;
615 [label="gini = 0.0\nsamples = 1\nvalue = [0, 0, 1]\nclass = H", fillcolor="#8139e5"] ;
614 -> 615 ;
616 [label="WHH <= 2.65\ngini = 0.245\nsamples = 7\nvalue = [6, 1, 0]\nclass = A", fillcolor="#e9965a"] ;
614 -> 616 ;
617 [label="gini = 0.0\nsamples = 1\nvalue = [0, 1, 0]\nclass = D", fillcolor="#39e581"] ;
616 -> 617 ;
618 [label="gini = 0.0\nsamples = 6\nvalue = [6, 0, 0]\nclass = A", fillcolor="#e58139"] ;
616 -> 618 ;
619 [label="gini = 0.0\nsamples = 5\nvalue = [5, 0, 0]\nclass = A", fillcolor="#e58139"] ;
517 -> 619 ;
620 [label="BWA <= 2.675\ngini = 0.46\nsamples = 11\nvalue = [3, 7, 1]\nclass = D", fillcolor="#9cf2c0"] ;
516 -> 620 ;
621 [label="IWH <= 2.7\ngini = 0.444\nsamples = 8\nvalue = [2, 6, 0]\nclass = D", fillcolor="#7beeab"] ;
620 -> 621 ;
622 [label="BWD <= 3.225\ngini = 0.278\nsamples = 5\nvalue = [0, 5, 0]\nclass = D", fillcolor="#39e581"] ;
621 -> 622 ;
623 [label="gini = 0.0\nsamples = 4\nvalue = [0, 4, 0]\nclass = D", fillcolor="#39e581"] ;
622 -> 623 ;
624 [label="gini = nan\nsamples = 1\nvalue = [0, 1, 0]\nclass = D", fillcolor="#39e581"] ;
622 -> 624 ;
625 [label="IWA <= 2.45\ngini = 0.5\nsamples = 3\nvalue = [2, 1, 0]\nclass = A", fillcolor="#f2c09c"] ;
621 -> 625 ;
626 [label="gini = 0.0\nsamples = 1\nvalue = [0, 1, 0]\nclass = D", fillcolor="#39e581"] ;
625 -> 626 ;
627 [label="gini = 0.0\nsamples = 2\nvalue = [2, 0, 0]\nclass = A", fillcolor="#e58139"] ;
625 -> 627 ;
628 [label="WHA <= 2.66\ngini = 0.5\nsamples = 3\nvalue = [1, 1, 1]\nclass = A", fillcolor="#ffffff"] ;
620 -> 628 ;
629 [label="VCH <= 2.95\ngini = 0.667\nsamples = 2\nvalue = [1, 1, 0]\nclass = A", fillcolor="#ffffff"] ;
628 -> 629 ;
630 [label="gini = 0.0\nsamples = 1\nvalue = [0, 1, 0]\nclass = D", fillcolor="#39e581"] ;
629 -> 630 ;
631 [label="gini = 0.0\nsamples = 1\nvalue = [1, 0, 0]\nclass = A", fillcolor="#e58139"] ;
629 -> 631 ;
632 [label="gini = nan\nsamples = 1\nvalue = [0, 0, 1]\nclass = H", fillcolor="#8139e5"] ;
628 -> 632 ;
633 [label="LBD <= 3.15\ngini = 0.63\nsamples = 75\nvalue = [15, 34, 26]\nclass = D", fillcolor="#dffbea"] ;
469 -> 633 ;
634 [label="VCH <= 2.725\ngini = 0.486\nsamples = 24\nvalue = [2, 16, 6]\nclass = D", fillcolor="#91f1b9"] ;
633 -> 634 ;
635 [label="IWD <= 3.275\ngini = 0.499\nsamples = 22\nvalue = [1, 15, 6]\nclass = D", fillcolor="#90f0b8"] ;
634 -> 635 ;
636 [label="VCA <= 3.125\ngini = 0.445\nsamples = 19\nvalue = [1, 14, 4]\nclass = D", fillcolor="#7beeab"] ;
635 -> 636 ;
637 [label="BWH <= 2.625\ngini = 0.426\nsamples = 17\nvalue = [1, 13, 3]\nclass = D", fillcolor="#72eca5"] ;
636 -> 637 ;
638 [label="VCD <= 3.275\ngini = 0.357\nsamples = 13\nvalue = [0, 11, 2]\nclass = D", fillcolor="#5dea98"] ;
637 -> 638 ;
639 [label="IWA <= 3.1\ngini = 0.278\nsamples = 11\nvalue = [0, 10, 1]\nclass = D", fillcolor="#4de88e"] ;
638 -> 639 ;
640 [label="LBH <= 2.55\ngini = 0.165\nsamples = 10\nvalue = [0, 9, 1]\nclass = D", fillcolor="#4fe88f"] ;
639 -> 640 ;
641 [label="gini = 0.0\nsamples = 7\nvalue = [0, 7, 0]\nclass = D", fillcolor="#39e581"] ;
640 -> 641 ;
642 [label="IWD <= 3.2\ngini = 0.5\nsamples = 3\nvalue = [0, 2, 1]\nclass = D", fillcolor="#9cf2c0"] ;
640 -> 642 ;
643 [label="IWD <= 3.125\ngini = 0.444\nsamples = 2\nvalue = [0, 1, 1]\nclass = D", fillcolor="#ffffff"] ;
642 -> 643 ;
644 [label="gini = -2.0\nsamples = 1\nvalue = [0, 1, 0]\nclass = D", fillcolor="#39e581"] ;
643 -> 644 ;
645 [label="gini = 0.0\nsamples = 1\nvalue = [0, 0, 1]\nclass = H", fillcolor="#8139e5"] ;
643 -> 645 ;
646 [label="gini = nan\nsamples = 1\nvalue = [0, 1, 0]\nclass = D", fillcolor="#39e581"] ;
642 -> 646 ;
647 [label="gini = nan\nsamples = 1\nvalue = [0, 1, 0]\nclass = D", fillcolor="#39e581"] ;
639 -> 647 ;
648 [label="gini = 0.0\nsamples = 2\nvalue = [0, 1, 1]\nclass = D", fillcolor="#ffffff"] ;
638 -> 648 ;
649 [label="VCA <= 2.89\ngini = 0.444\nsamples = 4\nvalue = [1, 2, 1]\nclass = D", fillcolor="#bdf6d5"] ;
637 -> 649 ;
650 [label="gini = -0.5\nsamples = 2\nvalue = [0, 2, 0]\nclass = D", fillcolor="#39e581"] ;
649 -> 650 ;
651 [label="gini = 0.0\nsamples = 2\nvalue = [1, 0, 1]\nclass = A", fillcolor="#ffffff"] ;
649 -> 651 ;
652 [label="gini = 0.0\nsamples = 2\nvalue = [0, 1, 1]\nclass = D", fillcolor="#ffffff"] ;
636 -> 652 ;
653 [label="VCD <= 3.225\ngini = 0.5\nsamples = 3\nvalue = [0, 1, 2]\nclass = H", fillcolor="#c09cf2"] ;
635 -> 653 ;
654 [label="VCA <= 3.0\ngini = 0.444\nsamples = 2\nvalue = [0, 1, 1]\nclass = D", fillcolor="#ffffff"] ;
653 -> 654 ;
655 [label="gini = -2.0\nsamples = 1\nvalue = [0, 0, 1]\nclass = H", fillcolor="#8139e5"] ;
654 -> 655 ;
656 [label="gini = 0.0\nsamples = 1\nvalue = [0, 1, 0]\nclass = D", fillcolor="#39e581"] ;
654 -> 656 ;
657 [label="gini = nan\nsamples = 1\nvalue = [0, 0, 1]\nclass = H", fillcolor="#8139e5"] ;
653 -> 657 ;
658 [label="gini = 0.0\nsamples = 2\nvalue = [1, 1, 0]\nclass = A", fillcolor="#ffffff"] ;
634 -> 658 ;
659 [label="IWA <= 2.775\ngini = 0.657\nsamples = 51\nvalue = [13, 18, 20]\nclass = H", fillcolor="#f7f3fd"] ;
633 -> 659 ;
660 [label="BWH <= 2.525\ngini = 0.571\nsamples = 32\nvalue = [3, 13, 16]\nclass = H", fillcolor="#ebe0fb"] ;
659 -> 660 ;
661 [label="WHA <= 2.84\ngini = 0.526\nsamples = 20\nvalue = [2, 5, 13]\nclass = H", fillcolor="#bc95f1"] ;
660 -> 661 ;
662 [label="gini = 0.338\nsamples = 14\nvalue = [1, 2, 11]\nclass = H", fillcolor="#a06bec"] ;
661 -> 662 ;
663 [label="BWD <= 3.225\ngini = 0.56\nsamples = 6\nvalue = [1, 3, 2]\nclass = D", fillcolor="#cef8e0"] ;
661 -> 663 ;
664 [label="B365A <= 2.9\ngini = 0.444\nsamples = 3\nvalue = [1, 0, 2]\nclass = H", fillcolor="#c09cf2"] ;
663 -> 664 ;
665 [label="gini = 0.0\nsamples = 1\nvalue = [1, 0, 0]\nclass = A", fillcolor="#e58139"] ;
664 -> 665 ;
666 [label="gini = 0.0\nsamples = 2\nvalue = [0, 0, 2]\nclass = H", fillcolor="#8139e5"] ;
664 -> 666 ;
667 [label="BWA <= 2.925\ngini = 0.444\nsamples = 3\nvalue = [0, 3, 0]\nclass = D", fillcolor="#39e581"] ;
663 -> 667 ;
668 [label="gini = 0.0\nsamples = 2\nvalue = [0, 2, 0]\nclass = D", fillcolor="#39e581"] ;
667 -> 668 ;
669 [label="gini = nan\nsamples = 1\nvalue = [0, 1, 0]\nclass = D", fillcolor="#39e581"] ;
667 -> 669 ;
670 [label="LBA <= 2.725\ngini = 0.512\nsamples = 12\nvalue = [1, 8, 3]\nclass = D", fillcolor="#91f1b9"] ;
660 -> 670 ;
671 [label="gini = 0.0\nsamples = 2\nvalue = [0, 0, 2]\nclass = H", fillcolor="#8139e5"] ;
670 -> 671 ;
672 [label="BWD <= 3.35\ngini = 0.34\nsamples = 10\nvalue = [1, 8, 1]\nclass = D", fillcolor="#65eb9d"] ;
670 -> 672 ;
673 [label="VCA <= 2.89\ngini = 0.34\nsamples = 9\nvalue = [1, 7, 1]\nclass = D", fillcolor="#6aeca0"] ;
672 -> 673 ;
674 [label="VCH <= 2.66\ngini = 0.5\nsamples = 2\nvalue = [1, 0, 1]\nclass = A", fillcolor="#ffffff"] ;
673 -> 674 ;
675 [label="gini = 0.0\nsamples = 1\nvalue = [1, 0, 0]\nclass = A", fillcolor="#e58139"] ;
674 -> 675 ;
676 [label="gini = 0.0\nsamples = 1\nvalue = [0, 0, 1]\nclass = H", fillcolor="#8139e5"] ;
674 -> 676 ;
677 [label="gini = 0.0\nsamples = 7\nvalue = [0, 7, 0]\nclass = D", fillcolor="#39e581"] ;
673 -> 677 ;
678 [label="gini = nan\nsamples = 1\nvalue = [0, 1, 0]\nclass = D", fillcolor="#39e581"] ;
672 -> 678 ;
679 [label="BWD <= 3.275\ngini = 0.586\nsamples = 19\nvalue = [10, 5, 4]\nclass = A", fillcolor="#f6d2b8"] ;
659 -> 679 ;
680 [label="IWD <= 3.25\ngini = 0.631\nsamples = 14\nvalue = [6, 5, 3]\nclass = A", fillcolor="#fcf1e9"] ;
679 -> 680 ;
681 [label="IWA <= 2.875\ngini = 0.653\nsamples = 11\nvalue = [4, 5, 2]\nclass = D", fillcolor="#e3fbed"] ;
680 -> 681 ;
682 [label="B365D <= 3.275\ngini = 0.653\nsamples = 6\nvalue = [3, 1, 2]\nclass = A", fillcolor="#f8e0ce"] ;
681 -> 682 ;
683 [label="WHD <= 3.15\ngini = 0.444\nsamples = 3\nvalue = [0, 1, 2]\nclass = H", fillcolor="#c09cf2"] ;
682 -> 683 ;
684 [label="BWD <= 3.225\ngini = 0.444\nsamples = 2\nvalue = [0, 0, 2]\nclass = H", fillcolor="#8139e5"] ;
683 -> 684 ;
685 [label="gini = -4.0\nsamples = 1\nvalue = [0, 0, 1]\nclass = H", fillcolor="#8139e5"] ;
684 -> 685 ;
686 [label="gini = 0.0\nsamples = 1\nvalue = [0, 0, 1]\nclass = H", fillcolor="#8139e5"] ;
684 -> 686 ;
687 [label="gini = nan\nsamples = 1\nvalue = [0, 1, 0]\nclass = D", fillcolor="#39e581"] ;
683 -> 687 ;
688 [label="gini = 0.0\nsamples = 3\nvalue = [3, 0, 0]\nclass = A", fillcolor="#e58139"] ;
682 -> 688 ;
689 [label="B365D <= 3.15\ngini = 0.375\nsamples = 5\nvalue = [1, 4, 0]\nclass = D", fillcolor="#6aeca0"] ;
681 -> 689 ;
690 [label="gini = 0.0\nsamples = 1\nvalue = [1, 0, 0]\nclass = A", fillcolor="#e58139"] ;
689 -> 690 ;
691 [label="gini = 0.0\nsamples = 4\nvalue = [0, 4, 0]\nclass = D", fillcolor="#39e581"] ;
689 -> 691 ;
692 [label="gini = 0.0\nsamples = 3\nvalue = [2, 0, 1]\nclass = A", fillcolor="#f2c09c"] ;
680 -> 692 ;
693 [label="B365D <= 3.175\ngini = 0.375\nsamples = 5\nvalue = [4, 0, 1]\nclass = A", fillcolor="#eca06a"] ;
679 -> 693 ;
694 [label="gini = 0.0\nsamples = 1\nvalue = [0, 0, 1]\nclass = H", fillcolor="#8139e5"] ;
693 -> 694 ;
695 [label="gini = 0.0\nsamples = 4\nvalue = [4, 0, 0]\nclass = A", fillcolor="#e58139"] ;
693 -> 695 ;
696 [label="BWH <= 2.475\ngini = 0.569\nsamples = 13\nvalue = [8, 2, 3]\nclass = A", fillcolor="#f2c09c"] ;
468 -> 696 ;
697 [label="IWA <= 2.8\ngini = 0.37\nsamples = 8\nvalue = [7, 1, 0]\nclass = A", fillcolor="#e99355"] ;
696 -> 697 ;
698 [label="WHD <= 3.15\ngini = 0.5\nsamples = 2\nvalue = [1, 1, 0]\nclass = A", fillcolor="#ffffff"] ;
697 -> 698 ;
699 [label="gini = 0.0\nsamples = 1\nvalue = [0, 1, 0]\nclass = D", fillcolor="#39e581"] ;
698 -> 699 ;
700 [label="gini = 0.0\nsamples = 1\nvalue = [1, 0, 0]\nclass = A", fillcolor="#e58139"] ;
698 -> 700 ;
701 [label="gini = 0.0\nsamples = 6\nvalue = [6, 0, 0]\nclass = A", fillcolor="#e58139"] ;
697 -> 701 ;
702 [label="WHH <= 2.56\ngini = 0.625\nsamples = 5\nvalue = [1, 1, 3]\nclass = H", fillcolor="#c09cf2"] ;
696 -> 702 ;
703 [label="BWA <= 3.075\ngini = 0.625\nsamples = 3\nvalue = [0, 1, 2]\nclass = H", fillcolor="#c09cf2"] ;
702 -> 703 ;
704 [label="B365A <= 3.175\ngini = 0.444\nsamples = 2\nvalue = [0, 1, 1]\nclass = D", fillcolor="#ffffff"] ;
703 -> 704 ;
705 [label="gini = -2.0\nsamples = 1\nvalue = [0, 0, 1]\nclass = H", fillcolor="#8139e5"] ;
704 -> 705 ;
706 [label="gini = 0.0\nsamples = 1\nvalue = [0, 1, 0]\nclass = D", fillcolor="#39e581"] ;
704 -> 706 ;
707 [label="gini = nan\nsamples = 1\nvalue = [0, 0, 1]\nclass = H", fillcolor="#8139e5"] ;
703 -> 707 ;
708 [label="gini = 0.0\nsamples = 2\nvalue = [1, 0, 1]\nclass = A", fillcolor="#ffffff"] ;
702 -> 708 ;
709 [label="IWA <= 2.575\ngini = 0.219\nsamples = 8\nvalue = [1, 7, 0]\nclass = D", fillcolor="#55e993"] ;
417 -> 709 ;
710 [label="gini = 0.0\nsamples = 6\nvalue = [0, 6, 0]\nclass = D", fillcolor="#39e581"] ;
709 -> 710 ;
711 [label="gini = 0.0\nsamples = 2\nvalue = [1, 1, 0]\nclass = A", fillcolor="#ffffff"] ;
709 -> 711 ;
712 [label="LBD <= 6.75\ngini = 0.484\nsamples = 302\nvalue = [206, 57, 39]\nclass = A", fillcolor="#efb287"] ;
110 -> 712 ;
713 [label="gini = 0.499\nsamples = 279\nvalue = [184, 56, 39]\nclass = A", fillcolor="#f0b78d"] ;
712 -> 713 ;
714 [label="VCA <= 1.19\ngini = 0.105\nsamples = 23\nvalue = [22, 1, 0]\nclass = A", fillcolor="#e68742"] ;
712 -> 714 ;
715 [label="gini = 0.0\nsamples = 16\nvalue = [16, 0, 0]\nclass = A", fillcolor="#e58139"] ;
714 -> 715 ;
716 [label="WHH <= 11.5\ngini = 0.5\nsamples = 7\nvalue = [6, 1, 0]\nclass = A", fillcolor="#e9965a"] ;
714 -> 716 ;
717 [label="gini = -4.0\nsamples = 2\nvalue = [2, 0, 0]\nclass = A", fillcolor="#e58139"] ;
716 -> 717 ;
718 [label="gini = 0.48\nsamples = 5\nvalue = [4, 1, 0]\nclass = A", fillcolor="#eca06a"] ;
716 -> 718 ;
}